sentences,dim_0,dim_1,dim_2,dim_3,dim_4,dim_5,dim_6,dim_7,dim_8,dim_9,dim_10,dim_11,dim_12,dim_13,dim_14,dim_15,dim_16,dim_17,dim_18,dim_19,dim_20,dim_21,dim_22,dim_23,dim_24,dim_25,dim_26,dim_27,dim_28,dim_29,dim_30,dim_31,dim_32,dim_33,dim_34,dim_35,dim_36,dim_37,dim_38,dim_39,dim_40,dim_41,dim_42,dim_43,dim_44,dim_45,dim_46,dim_47,dim_48,dim_49,dim_50,dim_51,dim_52,dim_53,dim_54,dim_55,dim_56,dim_57,dim_58,dim_59,dim_60,dim_61,dim_62,dim_63,dim_64,dim_65,dim_66,dim_67,dim_68,dim_69,dim_70,dim_71,dim_72,dim_73,dim_74,dim_75,dim_76,dim_77,dim_78,dim_79,dim_80,dim_81,dim_82,dim_83,dim_84,dim_85,dim_86,dim_87,dim_88,dim_89,dim_90,dim_91,dim_92,dim_93,dim_94,dim_95
December,-0.9075854420661926,-0.9250054955482483,-0.02689838409423828,0.11352139711380005,0.7807865738868713,0.020703569054603577,0.02083560824394226,1.2544296979904175,-0.6799439787864685,-0.5596717596054077,0.7532064318656921,0.16040316224098206,-1.3003289699554443,-0.4665655493736267,-0.5188857316970825,0.25836923718452454,-0.9287723302841187,-1.2525625228881836,1.4445302486419678,-0.5211267471313477,-1.6567342281341553,0.2589280307292938,-0.5089505314826965,-0.6100075244903564,-0.22388803958892822,-0.19762557744979858,0.9066997170448303,1.1590526103973389,-0.25222086906433105,0.6441312432289124,-0.21108505129814148,1.7131389379501343,0.9879900813102722,0.2955612540245056,-1.5469223260879517,-1.4949212074279785,0.4926069974899292,1.0815621614456177,0.35941433906555176,1.1662285327911377,-0.93384850025177,-0.09141838550567627,-0.6818135976791382,0.401105135679245,-0.037488192319869995,-0.811647355556488,-1.2030951976776123,0.7370434999465942,0.14258891344070435,-0.7225477695465088,0.7826358079910278,-0.0007139444351196289,1.3090347051620483,0.1178056001663208,-0.008267015218734741,-1.0706640481948853,0.6907650232315063,-0.6004908680915833,0.9289587736129761,1.0754034519195557,-1.741153597831726,-0.8614709973335266,1.0739662647247314,0.43632861971855164,1.7396594285964966,1.4582867622375488,-0.11209854483604431,-0.9140164852142334,-0.8433870673179626,-0.43042951822280884,1.466137409210205,-0.21037665009498596,1.71329665184021,0.10073547065258026,0.9156408905982971,-0.006432652473449707,0.16070815920829773,-0.2214326560497284,-0.8013951182365417,-0.0823080837726593,-0.8401657938957214,-0.3758293390274048,-0.5864465236663818,-1.524156928062439,-0.05989557504653931,0.6446099281311035,1.0571398735046387,0.10172330588102341,-0.40502414107322693,1.2956372499465942,-1.2508524656295776,-1.2631810903549194,2.1628658771514893,0.5338621139526367,0.9582319259643555,0.22685614228248596
European,-0.8384312391281128,-1.2310527563095093,0.05782294273376465,0.954463005065918,0.07056492567062378,-0.4894603192806244,0.0192459374666214,1.0014197826385498,-0.7881183624267578,-1.0193254947662354,2.2733535766601562,-0.18860989809036255,-0.7340682148933411,1.4451295137405396,-0.4738391935825348,-0.0778389573097229,-1.3866655826568604,-0.7310740947723389,-0.25812196731567383,-0.14613448083400726,-1.2852604389190674,0.15698015689849854,-0.0870179533958435,-0.07119947671890259,-0.07199043035507202,0.6356748938560486,-0.43000128865242004,1.2832098007202148,-0.5904521942138672,0.34369561076164246,-0.07497061789035797,-1.6953822374343872,1.0996710062026978,-0.11533285677433014,-0.6009390354156494,-1.3377268314361572,1.985116720199585,0.4166141152381897,2.4308876991271973,1.0112926959991455,-0.7438264489173889,1.4084855318069458,0.3822110891342163,-1.0019488334655762,0.3383634090423584,-0.4557630717754364,-0.49688825011253357,1.1790850162506104,0.54116290807724,0.2446652501821518,0.9336037635803223,-0.6966567039489746,-0.11361926794052124,-0.9412981271743774,0.6563053727149963,0.7146627902984619,1.2126140594482422,-0.14475837349891663,-0.5173222422599792,1.2828047275543213,-0.6715661287307739,-0.8543157577514648,-0.5822440385818481,-0.8398023843765259,1.9143283367156982,0.40611618757247925,1.2758949995040894,0.3153654932975769,0.4482036828994751,0.10343903303146362,-0.3426225185394287,-0.6720870733261108,-0.6621189117431641,-0.8890558481216431,-0.7654183506965637,-0.4368557631969452,-0.33817774057388306,-0.41813185811042786,0.35786399245262146,-0.9287661910057068,-0.20690318942070007,-0.7444796562194824,-1.1358917951583862,0.5705522298812866,-1.4024155139923096,1.4646873474121094,0.4753032922744751,1.1939183473587036,0.021447092294692993,-0.6829869747161865,-0.9787669777870178,-0.44041764736175537,2.3908677101135254,0.19024431705474854,-0.8475668430328369,0.9391050338745117
Commission,-1.5617103576660156,-0.5875312685966492,-0.4818953275680542,0.5168996453285217,0.19237332046031952,0.6150833368301392,0.9477164149284363,1.13617742061615,-1.090272068977356,-0.23858404159545898,0.16880136728286743,-0.28637149930000305,-0.9749776124954224,-0.10155817866325378,-0.7484008073806763,0.4770725965499878,-0.7533688545227051,-0.8660662770271301,1.4380422830581665,-0.4907056987285614,-1.2086386680603027,0.14525479078292847,-0.7929785251617432,-0.6059796810150146,0.9575260877609253,0.21385332942008972,0.8777872920036316,1.9663681983947754,-0.07952287793159485,-0.06489449739456177,-0.6310421228408813,0.5444707870483398,1.3801792860031128,0.3518404960632324,-1.3962223529815674,-1.3228676319122314,0.30736231803894043,1.271172046661377,0.8274110555648804,0.2941741943359375,-0.6274473667144775,-0.011118412017822266,-0.4309788942337036,1.0860161781311035,-0.9260735511779785,-0.4815266728401184,-1.039540410041809,1.9423989057540894,0.3721942603588104,-0.33650508522987366,0.46878135204315186,1.3493658304214478,1.299030065536499,-1.11680269241333,0.5808990597724915,-0.3617226183414459,1.517209529876709,-0.03622865676879883,0.6599156260490417,0.11954119801521301,-0.9351696968078613,-0.6463589668273926,0.47024285793304443,-0.24588540196418762,1.5177898406982422,0.19903510808944702,-0.01830524206161499,-0.585541307926178,-0.21835599839687347,-0.19854296743869781,0.5738034844398499,0.4436167776584625,2.5373966693878174,0.20553824305534363,1.4925158023834229,-0.009915709495544434,-0.614105761051178,-0.682123064994812,-0.9111351370811462,-1.08424973487854,-0.3045869469642639,-0.03679439425468445,-1.075051188468933,-0.8284634351730347,-0.6164891719818115,1.0372960567474365,-0.544269323348999,-0.36275506019592285,-0.8677313327789307,-0.4476907253265381,-1.5215303897857666,-0.6903798580169678,2.4420506954193115,-0.2555081844329834,0.5949400067329407,1.1621387004852295
ROM,-1.241674542427063,0.3420792520046234,-0.5530354380607605,0.3965975046157837,-0.22602486610412598,0.0011558234691619873,0.44767817854881287,1.0652283430099487,-0.30199146270751953,-0.9342691898345947,2.1031737327575684,-0.808537483215332,0.10223063081502914,0.458479106426239,-0.8481128811836243,1.4532612562179565,-0.6145357489585876,-1.1967226266860962,0.578458845615387,0.9873477220535278,-0.4110940098762512,-0.21013867855072021,-0.2674773931503296,-1.1871423721313477,0.6281905174255371,0.3790717124938965,0.458670437335968,1.2722500562667847,-0.3031041622161865,1.140769362449646,-0.8089591264724731,-0.28655460476875305,0.518856406211853,-0.6701849699020386,-0.46747422218322754,-1.2866456508636475,-0.06864501535892487,1.0798745155334473,0.9707684516906738,0.46987274289131165,-1.223425269126892,-0.15745137631893158,-0.4345764219760895,0.19090783596038818,-0.30514225363731384,-0.9962390661239624,-0.6100308299064636,1.1683049201965332,1.193958044052124,-0.7091195583343506,1.2893186807632446,1.6310592889785767,0.669126033782959,-0.1565101146697998,-0.4728170931339264,0.026407897472381592,0.28366658091545105,0.40034520626068115,0.6436836123466492,0.26960358023643494,-1.1664386987686157,-0.32154494524002075,-0.09806007146835327,-0.48798978328704834,1.1675670146942139,0.8117111325263977,0.019704461097717285,-0.5247406959533691,0.8584967255592346,-0.5077246427536011,-0.29952874779701233,-1.0243548154830933,0.7498284578323364,-0.8699101209640503,0.8582558035850525,0.21848979592323303,0.15723353624343872,-0.29251083731651306,-0.14014285802841187,-0.7455573678016663,-0.33140748739242554,0.41213446855545044,-0.6870710253715515,-1.6058290004730225,0.7378712892532349,0.650576114654541,0.24646419286727905,0.7533800601959229,-0.67071133852005,-0.5075950622558594,-1.9792077541351318,-0.4140729606151581,1.7453083992004395,0.1905204951763153,-0.01948857307434082,2.2066516876220703
Handbook,-1.821095585823059,-0.06032484769821167,-1.4148586988449097,0.3945961594581604,0.5688685774803162,0.037808552384376526,-0.006702065467834473,1.2891682386398315,-0.6965714693069458,-0.6110278964042664,0.9207267165184021,-0.3787909150123596,-1.006012201309204,-0.21066272258758545,-0.5761328339576721,0.5393323302268982,0.006758987903594971,-0.9679537415504456,0.29297709465026855,1.0170994997024536,-1.7705671787261963,0.006827205419540405,-1.6312565803527832,-0.9011044502258301,0.9196779727935791,0.5355275869369507,0.5208224058151245,1.8609230518341064,-0.0588110089302063,-0.18433886766433716,-0.8434270620346069,0.7945674657821655,-0.023583516478538513,1.1123555898666382,-0.17383548617362976,-1.157905101776123,-0.12430354952812195,0.7192399501800537,1.0853804349899292,-0.2478223443031311,-0.12804344296455383,0.584020733833313,-0.955248236656189,0.39331430196762085,0.32099416851997375,-1.3562917709350586,-0.37202462553977966,-0.057106271386146545,0.9561991095542908,-0.25709524750709534,0.5945976376533508,0.49821358919143677,-0.8266575932502747,-0.5447560548782349,0.9161983728408813,-0.3423834443092346,1.6434390544891357,0.05031438171863556,0.308417409658432,0.2920128107070923,-0.5224199295043945,0.05852752923965454,-0.8484071493148804,-0.8593159914016724,1.085099697113037,0.5582104921340942,0.5831570625305176,-1.085052728652954,-0.15343844890594482,0.8837275505065918,1.4715570211410522,0.4486655294895172,1.5910578966140747,0.2096269428730011,0.5501111745834351,0.7888563275337219,0.03977455198764801,0.02522099018096924,-1.1252225637435913,-0.4850497841835022,0.15082654356956482,0.3474220633506775,-0.44510331749916077,-1.0210020542144775,-0.9341182708740234,1.4391586780548096,-0.4631187319755554,-0.28692686557769775,-0.4025338292121887,0.0027328580617904663,-0.6148685812950134,0.3187459707260132,0.8462017774581909,0.44033557176589966,1.3316776752471924,0.036874622106552124
Case,-1.7583343982696533,-0.7011520266532898,-0.5289518237113953,0.552674412727356,-0.42182618379592896,0.2948331832885742,0.9312459230422974,1.1497539281845093,-0.4373222887516022,-0.7246350049972534,1.5942388772964478,-0.1536320149898529,-0.3642362356185913,-0.10629457235336304,-0.6350678205490112,1.0505201816558838,0.10024172067642212,-1.266772985458374,0.3560224175453186,-0.2861982583999634,0.08538931608200073,0.2613668143749237,-0.11674046516418457,-0.9510367512702942,0.5977285504341125,0.13251787424087524,1.2505983114242554,1.6243565082550049,-0.455260306596756,-0.08155551552772522,0.3553588390350342,-0.16025622189044952,0.7405714392662048,-0.58656245470047,-0.21438388526439667,-0.19497326016426086,0.05292999744415283,0.005014702677726746,-0.3964560031890869,1.1848362684249878,-0.900732159614563,0.43941622972488403,0.2577798068523407,-0.035080552101135254,-0.19888988137245178,-1.4946860074996948,-1.0967719554901123,2.6778969764709473,0.24641013145446777,-0.15499426424503326,0.35697078704833984,0.02696235477924347,1.0875349044799805,-0.9854466915130615,0.27658534049987793,-0.9740568995475769,1.2513827085494995,-0.6744493246078491,1.0361562967300415,-0.3014466166496277,-1.3260037899017334,0.05838112533092499,-0.32044389843940735,-0.6019687652587891,2.720958948135376,0.09305396676063538,0.44531795382499695,-1.2341479063034058,0.9177167415618896,-1.198733925819397,1.0471110343933105,0.28518563508987427,1.6716032028198242,0.08165478706359863,0.011171296238899231,-0.2906804084777832,-0.019350409507751465,-0.3454989790916443,0.3853483200073242,-0.8565558195114136,-0.7554556727409363,-0.32234132289886475,-1.0305085182189941,-1.3324956893920898,-0.15611834824085236,1.8097388744354248,-0.12346616387367249,-0.5168830752372742,0.30504482984542847,0.20436495542526245,-1.1067640781402588,-0.1653261035680771,2.063483238220215,-0.058055050671100616,-0.855146050453186,0.12712311744689941
type,-1.5639221668243408,-1.505698800086975,-0.7897763252258301,0.0994170606136322,-0.5456918478012085,0.3170212507247925,0.22230537235736847,0.752411961555481,-0.26818472146987915,-0.39542195200920105,0.5611128211021423,-1.1106548309326172,-0.8894853591918945,0.10676133632659912,-0.43691548705101013,0.016268938779830933,-0.3779308795928955,-1.750194787979126,0.04739940166473389,0.580639660358429,-0.2895684838294983,0.8134101629257202,-0.36904972791671753,-0.6299175024032593,0.4208703637123108,0.9794236421585083,-0.035886406898498535,1.3122614622116089,0.8246902227401733,-0.32731229066848755,0.04162350296974182,-0.004696786403656006,-0.10724210739135742,0.35977819561958313,-0.33617642521858215,-1.3644379377365112,0.5950647592544556,-0.17415395379066467,2.13852858543396,-0.7687686681747437,0.10585922002792358,-0.4217439293861389,-0.6354267597198486,0.7805371284484863,-0.35754531621932983,-0.928398847579956,0.18245750665664673,-0.34191614389419556,0.777191698551178,-0.20438235998153687,0.37007588148117065,0.5873446464538574,-0.1479291319847107,-0.4340445399284363,0.8593674898147583,-0.6538482904434204,1.3730401992797852,0.09385238587856293,-0.46252840757369995,-0.5749160051345825,-0.6474488377571106,0.14085164666175842,-0.2563977837562561,-0.29209715127944946,1.9371894598007202,1.1190685033798218,-0.8542588949203491,-0.817481517791748,0.1512433886528015,0.8599129319190979,0.506293535232544,0.8899171948432922,1.925654649734497,-0.3442809283733368,-0.3767004609107971,0.05843131244182587,-0.24494992196559906,-0.24560624361038208,0.7897123694419861,-0.07768392562866211,0.04532986879348755,-0.8147910833358765,-1.3823803663253784,-0.4880821108818054,0.3075782060623169,1.3888864517211914,0.2212766855955124,-0.5877155065536499,-1.3928451538085938,0.7321207523345947,-1.1676888465881348,-0.13119016587734222,0.8737029433250427,1.387573480606079,0.9426079988479614,0.4161335825920105
intervention,-1.2752820253372192,-0.44969967007637024,-1.3591634035110474,0.2587544918060303,0.8701782822608948,0.1040041521191597,2.184420585632324,1.3953875303268433,0.01762816309928894,-0.5058268904685974,0.5834779739379883,-0.9167313575744629,-0.1794220209121704,-0.5766968727111816,0.19186103343963623,0.6956108808517456,-0.4196702837944031,-1.6650876998901367,-0.11255538463592529,0.2851775884628296,-0.9813500046730042,0.3672401010990143,0.09844252467155457,-0.7686244249343872,0.09828686714172363,0.2641189694404602,-0.1545618623495102,2.110311508178711,-0.1552525758743286,0.4032471179962158,0.6113848686218262,-0.23056089878082275,0.6673108339309692,-0.12355610728263855,-0.32702335715293884,-1.3246314525604248,-0.09122864902019501,0.6267470121383667,0.7225857973098755,0.008666545152664185,-0.25479331612586975,0.6148460507392883,-0.9442123174667358,0.18428456783294678,-0.5364474654197693,-0.46142369508743286,0.14798074960708618,0.3645906448364258,0.06011494994163513,-0.21309787034988403,-0.06237956881523132,0.5611395835876465,0.7326176762580872,-0.20279699563980103,1.461582064628601,-1.0340090990066528,0.9232718348503113,-0.5361099243164062,0.38221821188926697,0.1773618906736374,-0.6478385329246521,-0.046590447425842285,0.10461105406284332,-0.6230920553207397,0.4605790376663208,0.025885581970214844,-0.4552900195121765,-0.22544565796852112,-0.11711077392101288,-0.14400601387023926,1.284621238708496,0.8627793788909912,1.8101921081542969,-0.28646862506866455,-0.1059129387140274,-0.6078477501869202,-0.5749426484107971,-0.15965691208839417,0.4500686824321747,-1.2300282716751099,-0.329700231552124,-0.5888100862503052,-1.1044533252716064,-0.6487779021263123,-0.24913451075553894,1.3215590715408325,-0.36662301421165466,-0.5293143391609192,-0.6688575744628906,0.4083899259567261,-0.24550172686576843,-0.3183693587779999,1.224630355834961,0.8095259666442871,-0.31040629744529724,1.2971616983413696
level,-1.5975414514541626,-1.6108133792877197,-0.7619475722312927,-0.48790064454078674,0.05001536011695862,0.09936320781707764,0.3123191297054291,1.4523708820343018,-0.17410889267921448,-0.5044222474098206,0.2680734694004059,0.3593357801437378,-0.48846718668937683,0.49578550457954407,-0.016669273376464844,0.4772384464740753,-0.6922280788421631,-1.4620752334594727,1.049818992614746,1.2822072505950928,-0.019015848636627197,0.5497488379478455,0.0033673644065856934,-0.04986871778964996,0.22345000505447388,0.34935975074768066,-0.4716852903366089,1.264856219291687,0.14438140392303467,-0.7667792439460754,0.009130880236625671,0.21593570709228516,1.377374291419983,-0.02171841263771057,0.6069658398628235,-0.6966788172721863,-0.04333609342575073,-0.624321460723877,1.613304853439331,-0.6192237138748169,-0.3828207850456238,0.23483574390411377,-0.46974068880081177,0.49229496717453003,0.24380448460578918,-0.1485327184200287,-0.9876103401184082,0.6868841648101807,0.2793130576610565,-0.613312840461731,-0.08705548942089081,-0.17459115386009216,0.16761641204357147,-0.5827031135559082,0.8312184810638428,-0.794248640537262,1.0546271800994873,-0.5672225952148438,-0.3394736051559448,-0.9772526025772095,-0.8325836658477783,0.5860038995742798,0.4203256666660309,-0.8073605298995972,0.5729244351387024,0.2305597960948944,-0.43160295486450195,-0.893079400062561,1.0748471021652222,0.5527437329292297,-0.205845907330513,0.12745869159698486,1.284188985824585,0.03916333615779877,-0.6766252517700195,0.31269678473472595,-0.6561028361320496,-0.04122519493103027,1.3221396207809448,-1.2953228950500488,-0.535620927810669,-0.7809298038482666,-1.220422625541687,-0.44263073801994324,-0.002162948250770569,1.6515350341796875,0.3153040409088135,0.04633525013923645,-1.234781265258789,1.2645899057388306,-0.6699377298355103,-0.7426857948303223,1.1767582893371582,1.1787269115447998,-0.3349664807319641,1.0406402349472046
action,-0.85616534948349,-0.6465083360671997,-0.7404317855834961,0.4143221974372864,0.007962487637996674,0.33781683444976807,1.4901386499404907,1.5440268516540527,0.39282840490341187,-0.6568740010261536,0.4113999307155609,-0.85930335521698,-0.47878652811050415,-0.6132674217224121,0.3766288757324219,0.5429171323776245,-0.7384886741638184,-1.2389367818832397,0.5795645713806152,0.39195722341537476,0.6407520174980164,0.8157447576522827,0.6786025762557983,-0.3567526340484619,0.07934685051441193,0.9623699188232422,0.13575555384159088,0.7108910083770752,-0.10544729232788086,0.35234329104423523,0.21595433354377747,-0.37303680181503296,0.8969447016716003,-0.8469927906990051,-0.544991135597229,-1.778085708618164,0.6219488382339478,0.06039157509803772,1.0010693073272705,0.40247976779937744,0.016456671059131622,0.6714714169502258,0.1644727885723114,0.18758335709571838,0.0629781186580658,-0.28000032901763916,-1.6763341426849365,-0.2312934398651123,0.022761821746826172,-0.8196784257888794,0.016183674335479736,1.0046968460083008,1.2490077018737793,-0.6485602855682373,0.5491492748260498,-0.44636908173561096,0.7435391545295715,0.10100284963846207,0.4015122354030609,-0.21628767251968384,-0.4265063405036926,0.12788790464401245,-0.03669443726539612,-0.23700234293937683,1.151350736618042,-0.0076847076416015625,-0.21214984357357025,-0.8844568133354187,0.7141515612602234,-0.8979514837265015,0.38221338391304016,0.07276086509227753,1.4475469589233398,-0.5406349301338196,0.7413971424102783,-1.0632067918777466,-0.6512073278427124,-0.24487662315368652,1.1066406965255737,-1.210455298423767,-0.04594237357378006,-0.11957496404647827,-1.8100955486297607,-1.0617306232452393,-0.279323548078537,0.41753485798835754,0.25815334916114807,-0.2230486124753952,-1.0158600807189941,0.6681827306747437,-1.679988980293274,-0.7013617157936096,1.2459232807159424,1.0262638330459595,-0.004778213798999786,0.6503207683563232
component,-1.6539701223373413,-0.8909401893615723,-0.4838314354419708,0.2403479665517807,-0.7010623812675476,0.2971705496311188,0.9314567446708679,1.105271577835083,-0.06595370173454285,-0.6824651956558228,0.5371672511100769,-0.7922502160072327,-1.0226616859436035,0.1245056688785553,-0.4442797899246216,0.5603197813034058,-0.29811733961105347,-1.8785548210144043,0.22391581535339355,0.41130968928337097,-0.5804782509803772,0.19246935844421387,-0.2398357093334198,-0.37162017822265625,1.4184883832931519,0.048283517360687256,0.08986108005046844,2.1128835678100586,0.4346931576728821,-0.6020063161849976,-0.7858588695526123,-0.5473236441612244,0.544466495513916,0.3614217936992645,0.03996202349662781,-1.2790476083755493,-0.04599671810865402,0.034750938415527344,1.2277207374572754,-1.4272515773773193,0.06298886239528656,-0.5335966348648071,-0.8113856911659241,0.41217514872550964,-0.5885926485061646,-0.5388791561126709,-0.9236063361167908,0.958184540271759,0.45508524775505066,-0.10960809886455536,0.23186779022216797,0.18038097023963928,0.5592870712280273,-0.40326690673828125,0.1472470760345459,-0.5971356630325317,0.6685578227043152,0.317269504070282,-0.33273476362228394,-0.7518152594566345,-0.34153372049331665,0.37450891733169556,-0.5546250939369202,-0.9196049571037292,0.7545430064201355,0.9447798728942871,-0.18257176876068115,-0.6014184355735779,0.49258434772491455,0.35200804471969604,0.8495259284973145,1.0702693462371826,1.5161428451538086,-0.5017173290252686,-0.047053009271621704,0.057124607264995575,-0.5081914663314819,-0.1887660026550293,0.948245644569397,-1.463710069656372,0.14000087976455688,-0.7414568662643433,-1.1626107692718506,-0.483640193939209,0.87514728307724,1.8768310546875,0.6646825671195984,0.04761870205402374,-0.8932350873947144,1.0524330139160156,-0.7253923416137695,-0.04553386569023132,1.606624722480774,1.1007565259933472,0.12401685118675232,1.5268607139587402
contract,-1.969104290008545,-0.7906159162521362,-1.1639386415481567,0.3220956027507782,0.1389470100402832,0.20263254642486572,1.1238558292388916,1.7978732585906982,-0.2021837681531906,-0.6956169605255127,0.34190648794174194,-1.3519386053085327,-1.0252776145935059,-0.8509758710861206,-0.007686316967010498,0.790774941444397,-0.6120017766952515,-1.4654369354248047,0.6091781258583069,0.5925284624099731,-0.19457638263702393,0.33094942569732666,-0.14128142595291138,-0.7378416061401367,0.3395916819572449,0.6252351999282837,-0.14217740297317505,1.6041725873947144,-0.09687498211860657,-0.061480045318603516,0.2753557562828064,0.8059661388397217,1.054823875427246,0.34041041135787964,-0.5830130577087402,-0.9655200242996216,0.00348055362701416,0.038477957248687744,1.2935584783554077,-0.3532980978488922,0.21223664283752441,0.18935251235961914,-0.38872069120407104,0.9408455491065979,-0.34181395173072815,-0.6073262691497803,-0.6131148338317871,0.689753532409668,-0.1020442545413971,0.17124566435813904,-0.0014615356922149658,0.648491621017456,0.6294184923171997,-0.4287901222705841,0.7091832756996155,-1.021597981452942,0.8141577243804932,-0.28255510330200195,-0.12763594090938568,0.055218249559402466,-1.0825189352035522,-0.4051086902618408,0.5331229567527771,-0.5252102613449097,1.3303749561309814,0.36511194705963135,-0.3241283595561981,-0.4582975506782532,-0.31007999181747437,0.8896031975746155,0.8223930597305298,1.0867433547973633,1.8020994663238525,-0.13151460886001587,-0.013514846563339233,0.017502576112747192,-0.3861657381057739,0.2625093162059784,0.37351760268211365,-0.8475520610809326,-0.05567160248756409,-0.3253459334373474,-1.3443427085876465,-0.4944287836551666,-0.2384805679321289,1.3505334854125977,-0.3560298681259155,-0.6415421366691589,-1.4216337203979492,0.05458945035934448,-0.631527841091156,-0.5631352663040161,0.8385631442070007,0.6050817966461182,0.0584489107131958,1.2237918376922607
Case,-1.7583343982696533,-0.7011520266532898,-0.5289518237113953,0.552674412727356,-0.42182618379592896,0.2948331832885742,0.9312459230422974,1.1497539281845093,-0.4373222887516022,-0.7246350049972534,1.5942388772964478,-0.1536320149898529,-0.3642362356185913,-0.10629457235336304,-0.6350678205490112,1.0505201816558838,0.10024172067642212,-1.266772985458374,0.3560224175453186,-0.2861982583999634,0.08538931608200073,0.2613668143749237,-0.11674046516418457,-0.9510367512702942,0.5977285504341125,0.13251787424087524,1.2505983114242554,1.6243565082550049,-0.455260306596756,-0.08155551552772522,0.3553588390350342,-0.16025622189044952,0.7405714392662048,-0.58656245470047,-0.21438388526439667,-0.19497326016426086,0.05292999744415283,0.005014702677726746,-0.3964560031890869,1.1848362684249878,-0.900732159614563,0.43941622972488403,0.2577798068523407,-0.035080552101135254,-0.19888988137245178,-1.4946860074996948,-1.0967719554901123,2.6778969764709473,0.24641013145446777,-0.15499426424503326,0.35697078704833984,0.02696235477924347,1.0875349044799805,-0.9854466915130615,0.27658534049987793,-0.9740568995475769,1.2513827085494995,-0.6744493246078491,1.0361562967300415,-0.3014466166496277,-1.3260037899017334,0.05838112533092499,-0.32044389843940735,-0.6019687652587891,2.720958948135376,0.09305396676063538,0.44531795382499695,-1.2341479063034058,0.9177167415618896,-1.198733925819397,1.0471110343933105,0.28518563508987427,1.6716032028198242,0.08165478706359863,0.011171296238899231,-0.2906804084777832,-0.019350409507751465,-0.3454989790916443,0.3853483200073242,-0.8565558195114136,-0.7554556727409363,-0.32234132289886475,-1.0305085182189941,-1.3324956893920898,-0.15611834824085236,1.8097388744354248,-0.12346616387367249,-0.5168830752372742,0.30504482984542847,0.20436495542526245,-1.1067640781402588,-0.1653261035680771,2.063483238220215,-0.058055050671100616,-0.855146050453186,0.12712311744689941
type,-1.5639221668243408,-1.505698800086975,-0.7897763252258301,0.0994170606136322,-0.5456918478012085,0.3170212507247925,0.22230537235736847,0.752411961555481,-0.26818472146987915,-0.39542195200920105,0.5611128211021423,-1.1106548309326172,-0.8894853591918945,0.10676133632659912,-0.43691548705101013,0.016268938779830933,-0.3779308795928955,-1.750194787979126,0.04739940166473389,0.580639660358429,-0.2895684838294983,0.8134101629257202,-0.36904972791671753,-0.6299175024032593,0.4208703637123108,0.9794236421585083,-0.035886406898498535,1.3122614622116089,0.8246902227401733,-0.32731229066848755,0.04162350296974182,-0.004696786403656006,-0.10724210739135742,0.35977819561958313,-0.33617642521858215,-1.3644379377365112,0.5950647592544556,-0.17415395379066467,2.13852858543396,-0.7687686681747437,0.10585922002792358,-0.4217439293861389,-0.6354267597198486,0.7805371284484863,-0.35754531621932983,-0.928398847579956,0.18245750665664673,-0.34191614389419556,0.777191698551178,-0.20438235998153687,0.37007588148117065,0.5873446464538574,-0.1479291319847107,-0.4340445399284363,0.8593674898147583,-0.6538482904434204,1.3730401992797852,0.09385238587856293,-0.46252840757369995,-0.5749160051345825,-0.6474488377571106,0.14085164666175842,-0.2563977837562561,-0.29209715127944946,1.9371894598007202,1.1190685033798218,-0.8542588949203491,-0.817481517791748,0.1512433886528015,0.8599129319190979,0.506293535232544,0.8899171948432922,1.925654649734497,-0.3442809283733368,-0.3767004609107971,0.05843131244182587,-0.24494992196559906,-0.24560624361038208,0.7897123694419861,-0.07768392562866211,0.04532986879348755,-0.8147910833358765,-1.3823803663253784,-0.4880821108818054,0.3075782060623169,1.3888864517211914,0.2212766855955124,-0.5877155065536499,-1.3928451538085938,0.7321207523345947,-1.1676888465881348,-0.13119016587734222,0.8737029433250427,1.387573480606079,0.9426079988479614,0.4161335825920105
intervention,-1.2752820253372192,-0.44969967007637024,-1.3591634035110474,0.2587544918060303,0.8701782822608948,0.1040041521191597,2.184420585632324,1.3953875303268433,0.01762816309928894,-0.5058268904685974,0.5834779739379883,-0.9167313575744629,-0.1794220209121704,-0.5766968727111816,0.19186103343963623,0.6956108808517456,-0.4196702837944031,-1.6650876998901367,-0.11255538463592529,0.2851775884628296,-0.9813500046730042,0.3672401010990143,0.09844252467155457,-0.7686244249343872,0.09828686714172363,0.2641189694404602,-0.1545618623495102,2.110311508178711,-0.1552525758743286,0.4032471179962158,0.6113848686218262,-0.23056089878082275,0.6673108339309692,-0.12355610728263855,-0.32702335715293884,-1.3246314525604248,-0.09122864902019501,0.6267470121383667,0.7225857973098755,0.008666545152664185,-0.25479331612586975,0.6148460507392883,-0.9442123174667358,0.18428456783294678,-0.5364474654197693,-0.46142369508743286,0.14798074960708618,0.3645906448364258,0.06011494994163513,-0.21309787034988403,-0.06237956881523132,0.5611395835876465,0.7326176762580872,-0.20279699563980103,1.461582064628601,-1.0340090990066528,0.9232718348503113,-0.5361099243164062,0.38221821188926697,0.1773618906736374,-0.6478385329246521,-0.046590447425842285,0.10461105406284332,-0.6230920553207397,0.4605790376663208,0.025885581970214844,-0.4552900195121765,-0.22544565796852112,-0.11711077392101288,-0.14400601387023926,1.284621238708496,0.8627793788909912,1.8101921081542969,-0.28646862506866455,-0.1059129387140274,-0.6078477501869202,-0.5749426484107971,-0.15965691208839417,0.4500686824321747,-1.2300282716751099,-0.329700231552124,-0.5888100862503052,-1.1044533252716064,-0.6487779021263123,-0.24913451075553894,1.3215590715408325,-0.36662301421165466,-0.5293143391609192,-0.6688575744628906,0.4083899259567261,-0.24550172686576843,-0.3183693587779999,1.224630355834961,0.8095259666442871,-0.31040629744529724,1.2971616983413696
cover,-1.0541505813598633,-0.7521440386772156,-0.6373496055603027,0.23439157009124756,-0.686720073223114,-0.17948408424854279,0.36901265382766724,0.8507433533668518,0.24013996124267578,-1.3511193990707397,0.045445602387189865,-0.730686604976654,0.037572622299194336,-0.08614739030599594,0.07343876361846924,0.6229643225669861,0.7647311687469482,-1.5618342161178589,-0.6691698431968689,0.0364016592502594,-0.759688138961792,0.44544535875320435,-1.0248801708221436,-0.8079324960708618,1.0996114015579224,0.3200904130935669,0.30992382764816284,1.9189790487289429,-0.3228664696216583,-0.6629778146743774,-0.35252663493156433,1.6727427244186401,0.08764815330505371,-0.46218064427375793,-0.13377699255943298,-2.131747245788574,0.6201044917106628,0.03592834621667862,0.9974098801612854,-1.348761796951294,2.7122130393981934,0.28216996788978577,-1.2257585525512695,0.03460562229156494,-0.23772266507148743,-0.5027311444282532,1.872870922088623,-0.7579753398895264,1.4114112854003906,0.16058483719825745,0.012505948543548584,0.6705929040908813,0.13034123182296753,-0.8168821334838867,1.4071930646896362,-0.6440070271492004,0.5205475687980652,-0.9308435916900635,-0.6955851316452026,-0.565169632434845,-1.487430214881897,1.2365120649337769,-0.4862687587738037,0.7010557055473328,0.8490795493125916,0.9558535218238831,0.8456277847290039,-0.8746957182884216,0.5034543871879578,1.0200355052947998,0.6123617887496948,0.9428536891937256,0.3409357964992523,0.6700878143310547,-0.7532357573509216,0.7099032402038574,0.022345155477523804,0.2582217752933502,0.6285591125488281,-1.0772656202316284,-0.12415176630020142,0.038343191146850586,-0.6121214628219604,-0.157677561044693,0.015292048454284668,1.6772503852844238,-0.24008309841156006,-0.4723421037197113,-1.577357292175293,0.17314276099205017,-0.8703365921974182,0.17836320400238037,-0.672924280166626,0.9095968008041382,-0.5685327053070068,0.8228581547737122
single,-1.534865140914917,-1.4203094244003296,-1.0104700326919556,0.19976186752319336,-0.6669819951057434,0.044834256172180176,0.9951153993606567,1.142535924911499,0.1018267273902893,-1.3457368612289429,0.09123623371124268,-1.3005598783493042,-0.05065286159515381,0.5582159161567688,-1.8655040264129639,0.9762004613876343,-1.124505877494812,-1.609980821609497,-0.2083214521408081,0.8730072975158691,-0.5514910221099854,0.8441886305809021,-0.3570544123649597,0.6153305768966675,0.512871265411377,-0.5907729864120483,0.06041766703128815,0.5591058135032654,-1.650925636291504,0.3196902871131897,-0.15872466564178467,-0.5043089389801025,1.3733371496200562,0.10045398771762848,0.11640685796737671,-0.3689948320388794,0.9160821437835693,-0.36190831661224365,2.376023769378662,0.8596724271774292,-0.33454737067222595,-0.39255738258361816,0.1271715760231018,0.7718982696533203,0.6698349118232727,-0.6019299626350403,-0.5579429864883423,-1.150425910949707,-0.049522265791893005,0.03254230320453644,0.7991450428962708,0.9989967942237854,-0.6715696454048157,0.894270658493042,0.8384251594543457,1.612953543663025,0.2576453685760498,-0.2718479633331299,-0.3816337287425995,0.7076425552368164,-1.0202866792678833,-1.1830805540084839,-0.2427527904510498,-0.03979041427373886,0.7341058850288391,0.1793093979358673,-0.1580670177936554,-0.6656708717346191,0.3831925690174103,1.2275923490524292,-0.029449164867401123,0.18209992349147797,-0.9173814058303833,-0.006435304880142212,-0.31925636529922485,1.0016963481903076,-0.5438255667686462,-0.3048916161060333,1.0747369527816772,-0.8601388931274414,-0.13846050202846527,-1.2234498262405396,0.08990171551704407,0.032646164298057556,-1.50003981590271,2.0428621768951416,0.7916001677513123,1.7611668109893799,-1.3427414894104004,-0.3321986794471741,1.3244726657867432,-0.1205492615699768,1.5657600164413452,0.7772876620292664,-1.3481639623641968,-0.019150614738464355
contract,-1.969104290008545,-0.7906159162521362,-1.1639386415481567,0.3220956027507782,0.1389470100402832,0.20263254642486572,1.1238558292388916,1.7978732585906982,-0.2021837681531906,-0.6956169605255127,0.34190648794174194,-1.3519386053085327,-1.0252776145935059,-0.8509758710861206,-0.007686316967010498,0.790774941444397,-0.6120017766952515,-1.4654369354248047,0.6091781258583069,0.5925284624099731,-0.19457638263702393,0.33094942569732666,-0.14128142595291138,-0.7378416061401367,0.3395916819572449,0.6252351999282837,-0.14217740297317505,1.6041725873947144,-0.09687498211860657,-0.061480045318603516,0.2753557562828064,0.8059661388397217,1.054823875427246,0.34041041135787964,-0.5830130577087402,-0.9655200242996216,0.00348055362701416,0.038477957248687744,1.2935584783554077,-0.3532980978488922,0.21223664283752441,0.18935251235961914,-0.38872069120407104,0.9408455491065979,-0.34181395173072815,-0.6073262691497803,-0.6131148338317871,0.689753532409668,-0.1020442545413971,0.17124566435813904,-0.0014615356922149658,0.648491621017456,0.6294184923171997,-0.4287901222705841,0.7091832756996155,-1.021597981452942,0.8141577243804932,-0.28255510330200195,-0.12763594090938568,0.055218249559402466,-1.0825189352035522,-0.4051086902618408,0.5331229567527771,-0.5252102613449097,1.3303749561309814,0.36511194705963135,-0.3241283595561981,-0.4582975506782532,-0.31007999181747437,0.8896031975746155,0.8223930597305298,1.0867433547973633,1.8020994663238525,-0.13151460886001587,-0.013514846563339233,0.017502576112747192,-0.3861657381057739,0.2625093162059784,0.37351760268211365,-0.8475520610809326,-0.05567160248756409,-0.3253459334373474,-1.3443427085876465,-0.4944287836551666,-0.2384805679321289,1.3505334854125977,-0.3560298681259155,-0.6415421366691589,-1.4216337203979492,0.05458945035934448,-0.631527841091156,-0.5631352663040161,0.8385631442070007,0.6050817966461182,0.0584489107131958,1.2237918376922607
r,0.31749463081359863,0.14180326461791992,-0.2364547997713089,-0.4388841390609741,-0.17426472902297974,0.620013952255249,-0.4350585639476776,1.4898724555969238,-0.3667929768562317,-0.6753326654434204,-0.08746163547039032,0.09816540777683258,0.6064422130584717,1.00240159034729,-0.3201756477355957,1.0122742652893066,-1.2656066417694092,-1.798342227935791,0.25731679797172546,1.233523964881897,-0.7579404711723328,-0.06501504778862,0.43872177600860596,-1.2493557929992676,1.0377705097198486,0.1600426435470581,-0.34167832136154175,0.7985669374465942,-0.06332539021968842,1.7777936458587646,-0.9203977584838867,0.4672219157218933,1.0656194686889648,-0.6477358937263489,0.6127743721008301,-0.9758391380310059,0.24945175647735596,0.9161385297775269,2.245460033416748,-0.14679303765296936,-1.4308507442474365,-0.17894376814365387,-1.1458755731582642,0.5356498956680298,0.33588793873786926,-1.0060539245605469,0.3281567692756653,0.013779416680335999,-0.11042600125074387,-0.37574613094329834,1.756577968597412,-0.009872347116470337,1.7451694011688232,-0.5877093076705933,1.744949460029602,0.6549477577209473,0.7263807058334351,-0.29879066348075867,0.6659986972808838,-0.3528573215007782,-1.7205626964569092,-0.07840180397033691,0.43264684081077576,-0.5118016600608826,0.48178768157958984,1.1551316976547241,-0.7868458032608032,-0.27614670991897583,0.7879633903503418,-0.1814461052417755,-0.8817952871322632,0.5929397344589233,0.27958112955093384,0.15308833122253418,-0.8382582664489746,0.5862147808074951,0.7133140563964844,0.6222026348114014,0.9937452077865601,-0.38444721698760986,-0.01021769642829895,-1.352691650390625,-0.4153555631637573,-1.2966787815093994,0.2266761064529419,0.3599114418029785,0.3035309612751007,-0.7518787384033203,-1.0104520320892334,0.37077537178993225,-0.890978217124939,0.1949564814567566,-0.9174088835716248,-0.0751742422580719,-0.034852445125579834,0.7030901908874512
S,-1.5983458757400513,-0.4009992778301239,-0.1862889528274536,0.3426215350627899,0.6817097663879395,-0.39773139357566833,0.7064919471740723,0.5931628942489624,1.2780258655548096,-0.24630269408226013,0.32974904775619507,-0.20721735060214996,-0.5152312517166138,0.6234676837921143,-0.8609989881515503,1.1176027059555054,-1.0222554206848145,-1.4194352626800537,0.9668183922767639,0.8872593641281128,-0.7786300182342529,0.29140597581863403,-0.6292418241500854,-0.7825591564178467,0.4912537634372711,0.6071171164512634,1.1910432577133179,1.4526126384735107,-0.022752225399017334,1.0297168493270874,-0.6823534369468689,0.23962277173995972,0.5538469552993774,-0.7683200240135193,-0.15127317607402802,-1.7484092712402344,0.7329109311103821,0.2205137312412262,1.7878530025482178,-0.36793437600135803,-1.4874019622802734,-0.4738118648529053,-0.5827310085296631,-0.6697971820831299,-0.4387042820453644,-1.074073076248169,-0.8704502582550049,0.3545265793800354,0.5383402109146118,-0.8325324058532715,0.8216766119003296,1.045240044593811,-0.20506633818149567,-0.02276146411895752,0.5241690874099731,-0.5056997537612915,1.2942790985107422,0.08664162456989288,-0.4520975649356842,-0.49200165271759033,-0.9036173820495605,-0.3445727825164795,-0.38452011346817017,-0.9730542898178101,0.7723497152328491,0.7238758206367493,-0.21629422903060913,0.6324438452720642,0.653843343257904,0.43369704484939575,-0.21166127920150757,0.43950268626213074,2.064157485961914,0.5389903783798218,-0.2548675835132599,0.5287125110626221,-0.5840351581573486,-0.8542904257774353,-0.7320888042449951,-0.9760240316390991,-0.32614800333976746,-0.9640493988990784,-0.5934985876083374,-0.7378314733505249,-0.4932064414024353,0.9133893251419067,-0.13886946439743042,0.6284171938896179,-0.6436601877212524,-0.13880828022956848,-0.38515371084213257,-0.8636658191680908,2.6865007877349854,-0.006202220916748047,0.41119709610939026,2.378882884979248
rom,0.0674019455909729,0.1016371101140976,-0.656937837600708,-0.1331610530614853,-0.18787336349487305,-0.2633846700191498,0.3003472089767456,0.5670872330665588,0.367334246635437,0.1631910800933838,1.39306640625,-1.0778928995132446,-1.1149095296859741,-0.2400248944759369,-0.6387157440185547,0.7176486253738403,-0.960578978061676,-0.9246249198913574,0.6635526418685913,1.2121427059173584,-0.785946249961853,0.24918028712272644,0.09854727983474731,-1.2404022216796875,1.275984764099121,0.2040584236383438,1.8137439489364624,0.02109891176223755,-0.6954622864723206,1.7621970176696777,0.2004753053188324,-0.7321037650108337,0.24149557948112488,-1.0968284606933594,-0.15114276111125946,-1.570643663406372,-0.8838446140289307,-0.07968834042549133,0.6175835132598877,-0.2546960711479187,-0.5395830869674683,-1.0527300834655762,0.47913122177124023,-0.32421672344207764,0.5026103854179382,-1.0267738103866577,1.0680036544799805,-0.9296198487281799,1.5137808322906494,0.4072507321834564,0.8841726183891296,0.11872509121894836,-0.48447245359420776,-0.2216140329837799,-1.4545468091964722,-0.28547877073287964,1.219454050064087,-0.18212753534317017,0.48871657252311707,-0.44990041851997375,-1.3479766845703125,-1.2759510278701782,-0.26376500725746155,-0.2728986442089081,0.7463847398757935,0.24654600024223328,-0.45680856704711914,-1.4174182415008545,0.7891741394996643,0.5847012400627136,0.5333691835403442,0.8585817813873291,-0.1845211386680603,-0.010325461626052856,0.2118518352508545,0.7282693386077881,-0.6112105846405029,1.51958429813385,1.3969238996505737,0.2004680037498474,-0.24014538526535034,-0.14872092008590698,-0.06018401309847832,-0.34508535265922546,1.406752347946167,0.9573627710342407,2.1025400161743164,0.2714712619781494,-0.92679762840271,0.41829752922058105,-1.0652987957000732,1.0120165348052979,-1.114510416984558,0.31886595487594604,-0.9052447080612183,0.9409446716308594
review,-1.2210052013397217,-1.1116185188293457,-0.8065488338470459,0.2486998438835144,0.3485960066318512,-0.16636840999126434,1.3125991821289062,1.1970117092132568,0.3864954113960266,-0.36332401633262634,0.5959701538085938,-0.5519012212753296,-0.4499473571777344,-0.6517513990402222,0.2713358998298645,1.039818286895752,-0.6382122039794922,-1.0265436172485352,0.49548855423927307,1.048870325088501,-0.16505783796310425,1.2356740236282349,-0.8310571312904358,-0.6531012058258057,0.10229678452014923,1.3053886890411377,-0.5315414071083069,0.9782291650772095,-0.11406488716602325,0.017926372587680817,-0.26631563901901245,0.5502629280090332,1.4183928966522217,-0.044619977474212646,-0.202903613448143,-0.759590744972229,-0.7440181970596313,0.08145014941692352,0.4472149610519409,-0.7253292202949524,-0.15806996822357178,1.349402666091919,0.5220353603363037,0.44124841690063477,-0.45724543929100037,-0.6323862075805664,-0.9592487812042236,0.45669692754745483,-0.02554534375667572,0.807964026927948,-0.23980072140693665,0.9541236758232117,-0.23055621981620789,-0.8503848910331726,0.8939982056617737,-0.7458328008651733,2.4526185989379883,-0.03736034035682678,-0.26073411107063293,-0.6413989067077637,-1.4025702476501465,0.30709129571914673,0.28325313329696655,-1.0192104578018188,0.6573026180267334,0.13934165239334106,-0.6752442121505737,-0.7818746566772461,-0.19877029955387115,0.6221432089805603,0.2404380738735199,0.892166018486023,1.4835803508758545,-0.3776908218860626,0.098452627658844,-0.0662042498588562,-0.41886189579963684,1.0501484870910645,0.6965247392654419,-1.5361156463623047,-0.5153587460517883,-0.6491246223449707,-1.548659324645996,-0.05436854064464569,0.09080445766448975,0.5725691914558411,-1.03317391872406,-0.8055881261825562,-1.201609492301941,0.46347180008888245,-0.2798272371292114,-0.8934860229492188,0.8455663919448853,0.5354913473129272,0.16268736124038696,1.9719815254211426
different,-1.4377367496490479,-1.4907450675964355,-0.8066819906234741,-0.18240180611610413,-0.6340485215187073,0.011120140552520752,0.5884354710578918,0.4461468756198883,-0.013904392719268799,-1.3339312076568604,-0.02553287148475647,0.7498887777328491,0.023527249693870544,0.6443453431129456,-1.2428793907165527,-0.6412867903709412,-0.6681631803512573,-0.7525092959403992,0.48986876010894775,0.9034222960472107,-1.1321864128112793,1.0014218091964722,-0.5242990851402283,0.5989810228347778,-0.27750590443611145,0.21221768856048584,-0.5538904666900635,0.7796652317047119,-1.6564419269561768,-0.6625014543533325,-0.06350961327552795,0.16873377561569214,0.27404627203941345,-0.6565769910812378,0.9317238330841064,-0.53512042760849,0.42637601494789124,0.25851285457611084,1.8391220569610596,0.3184176981449127,-1.0834834575653076,-0.4494353234767914,0.2025614082813263,0.1875801831483841,0.24473899602890015,-0.3100625276565552,-0.9038033485412598,-0.5438610911369324,0.4150245487689972,0.07102164626121521,-0.04521861672401428,1.7481426000595093,-0.7626848220825195,0.11077970266342163,0.05092686414718628,1.9657683372497559,-0.34707993268966675,-0.08544555306434631,-0.4457624554634094,-0.1634349673986435,-0.9761033058166504,-2.0999414920806885,-0.2694350779056549,-0.030838191509246826,0.08946266770362854,-0.20145228505134583,-0.09054690599441528,-0.5005601644515991,1.1983531713485718,0.18726639449596405,-0.2789972126483917,-0.09173665195703506,-0.5366256237030029,0.19017377495765686,-0.7706544995307922,0.5868127942085266,-0.04211033880710602,0.06014882028102875,-0.03293503820896149,-0.11170531809329987,-0.4525817036628723,-0.08596476912498474,-0.45362532138824463,1.2942451238632202,0.580676794052124,2.615648031234741,0.30407047271728516,0.647787868976593,-0.8470418453216553,1.006957769393921,0.5170865058898926,-0.2552323043346405,1.209468960762024,1.0878026485443115,-0.6768781542778015,-0.11185936629772186
evaluation,-2.0836687088012695,-0.19436126947402954,-0.4236098825931549,-0.14984360337257385,0.4398040175437927,-0.023857686668634415,1.024010181427002,1.4222718477249146,-0.3291945457458496,-0.3751855790615082,0.4647659957408905,-0.40537533164024353,-0.491000235080719,-0.1401454210281372,-0.5298261046409607,0.6857560873031616,-1.0839283466339111,-1.074389934539795,0.6114681959152222,0.9171227812767029,-0.29463139176368713,0.7849107980728149,0.4263893961906433,-0.9859237670898438,-0.018299847841262817,0.4016651511192322,-0.2649003267288208,0.8632069230079651,0.1988769769668579,-0.4998846650123596,0.11025983095169067,-0.12312886118888855,1.3961790800094604,0.2362290769815445,-0.3252893388271332,-0.8599136471748352,0.4926956593990326,0.6805799007415771,0.6529003381729126,-0.6781085729598999,-0.10744810104370117,-0.2876478135585785,-0.9382333755493164,0.9782736301422119,-0.4356571435928345,-0.7210448980331421,-1.3018028736114502,0.5954465866088867,0.3692134618759155,-0.5262228846549988,-0.14650042355060577,1.8365604877471924,0.7008812427520752,-0.4405951499938965,0.9299163818359375,0.08624669909477234,1.3059958219528198,-0.61928391456604,-0.4547662138938904,-0.38078027963638306,-0.9047573804855347,-0.3920350968837738,-0.030140236020088196,-0.5420796871185303,0.742689311504364,0.5016741752624512,-0.7371604442596436,-0.5295940041542053,0.6679925918579102,-0.43334680795669556,0.5058882832527161,0.2775060534477234,1.3530100584030151,-0.5463716983795166,0.3395541310310364,-0.28631049394607544,-0.8578066229820251,-0.3590432107448578,0.2602059245109558,-0.711431622505188,0.12343427538871765,0.5883796215057373,-1.784977912902832,-0.7266427874565125,0.3352828621864319,1.35662841796875,-0.48837536573410034,-0.8366832137107849,-1.1360692977905273,1.2763481140136719,-0.9998145699501038,-0.6320219039916992,1.065322995185852,0.7592985033988953,0.1395086944103241,1.8379507064819336
evaluation,-2.0836687088012695,-0.19436126947402954,-0.4236098825931549,-0.14984360337257385,0.4398040175437927,-0.023857686668634415,1.024010181427002,1.4222718477249146,-0.3291945457458496,-0.3751855790615082,0.4647659957408905,-0.40537533164024353,-0.491000235080719,-0.1401454210281372,-0.5298261046409607,0.6857560873031616,-1.0839283466339111,-1.074389934539795,0.6114681959152222,0.9171227812767029,-0.29463139176368713,0.7849107980728149,0.4263893961906433,-0.9859237670898438,-0.018299847841262817,0.4016651511192322,-0.2649003267288208,0.8632069230079651,0.1988769769668579,-0.4998846650123596,0.11025983095169067,-0.12312886118888855,1.3961790800094604,0.2362290769815445,-0.3252893388271332,-0.8599136471748352,0.4926956593990326,0.6805799007415771,0.6529003381729126,-0.6781085729598999,-0.10744810104370117,-0.2876478135585785,-0.9382333755493164,0.9782736301422119,-0.4356571435928345,-0.7210448980331421,-1.3018028736114502,0.5954465866088867,0.3692134618759155,-0.5262228846549988,-0.14650042355060577,1.8365604877471924,0.7008812427520752,-0.4405951499938965,0.9299163818359375,0.08624669909477234,1.3059958219528198,-0.61928391456604,-0.4547662138938904,-0.38078027963638306,-0.9047573804855347,-0.3920350968837738,-0.030140236020088196,-0.5420796871185303,0.742689311504364,0.5016741752624512,-0.7371604442596436,-0.5295940041542053,0.6679925918579102,-0.43334680795669556,0.5058882832527161,0.2775060534477234,1.3530100584030151,-0.5463716983795166,0.3395541310310364,-0.28631049394607544,-0.8578066229820251,-0.3590432107448578,0.2602059245109558,-0.711431622505188,0.12343427538871765,0.5883796215057373,-1.784977912902832,-0.7266427874565125,0.3352828621864319,1.35662841796875,-0.48837536573410034,-0.8366832137107849,-1.1360692977905273,1.2763481140136719,-0.9998145699501038,-0.6320219039916992,1.065322995185852,0.7592985033988953,0.1395086944103241,1.8379507064819336
assessment,-1.509082555770874,-1.1260432004928589,-1.9618914127349854,-0.2577112019062042,0.9544448852539062,-0.45051005482673645,1.192272424697876,1.6797219514846802,-0.2543340027332306,-0.5533728003501892,0.5847277641296387,-0.69608074426651,-0.626100480556488,0.22342368960380554,0.35965609550476074,1.1072068214416504,-1.033806562423706,-1.2768418788909912,0.9890023469924927,1.1594723463058472,0.4597141146659851,0.4182446002960205,0.20870441198349,-0.6954281330108643,-0.2296750247478485,0.7857502698898315,0.1587396115064621,0.9171027541160583,0.7273734211921692,-0.13137057423591614,0.15427592396736145,-0.25944507122039795,1.1380252838134766,-0.036928679794073105,-0.3577972650527954,-1.3460843563079834,0.22430777549743652,0.2227190136909485,0.8396120667457581,0.9172843098640442,0.1464017629623413,0.5687470436096191,0.423011839389801,0.154398113489151,0.09898561239242554,-0.4807186424732208,-1.3043830394744873,0.5940492153167725,0.2026142179965973,-0.49827563762664795,-0.20184966921806335,0.44539129734039307,1.0046579837799072,-0.6516273021697998,0.7291231751441956,-0.8162466287612915,1.250746250152588,0.0612143874168396,-0.3891136646270752,-0.5187355279922485,-0.5925171375274658,0.027577921748161316,-0.22394728660583496,0.5869982242584229,1.2483181953430176,0.7192068099975586,-0.3453076481819153,-0.1405504047870636,0.5589830279350281,-0.5662712454795837,0.46424153447151184,0.4628395736217499,1.9159165620803833,-0.6080145835876465,-0.6829739809036255,-0.12306961417198181,0.24983808398246765,-0.5984001159667969,1.5214025974273682,-0.7924287915229797,-0.5119853019714355,-0.9117636680603027,-1.7805497646331787,-0.599465012550354,0.55622398853302,1.0161895751953125,-0.025282762944698334,0.1212875247001648,-1.3536142110824585,0.536608099937439,-0.7528810501098633,-0.5063872337341309,1.157239556312561,0.8412841558456421,-0.8432857394218445,0.8094253540039062
offer,-1.2597105503082275,-0.8304277062416077,-0.7096661329269409,0.5811177492141724,-0.7026000022888184,0.08117735385894775,0.9264964461326599,1.1703730821609497,0.14901062846183777,-0.15214097499847412,0.40644827485084534,-0.6578388214111328,-0.8927592039108276,-0.6615294218063354,-0.3540268540382385,0.6130077242851257,0.06702786684036255,-1.4925436973571777,-0.5107949376106262,1.3977174758911133,-0.504889726638794,0.10345977544784546,-0.8646529912948608,-0.32579368352890015,0.4039163291454315,0.06662696599960327,-1.0482968091964722,1.8859071731567383,0.014629006385803223,-0.678396999835968,-0.17474475502967834,1.5557188987731934,0.2726934552192688,-0.02340855449438095,-0.49982306361198425,-0.947723925113678,0.40614134073257446,0.6312848329544067,1.746917963027954,-1.7871506214141846,2.013265609741211,0.15759462118148804,-0.8953987956047058,0.016690097749233246,-0.07510381937026978,-1.2503681182861328,1.3702614307403564,-1.2339717149734497,0.7155262231826782,0.5270776748657227,0.1536167860031128,0.783268928527832,-0.6140995025634766,-0.574533998966217,0.8398910760879517,-1.4725581407546997,0.6595989465713501,-0.39571627974510193,-0.9452661275863647,0.12930284440517426,-0.8673973083496094,0.7244752645492554,-0.04858678579330444,0.23187172412872314,1.2305084466934204,0.5428280830383301,-0.07664410769939423,-0.6456913948059082,-0.41830357909202576,2.186159610748291,0.6970139741897583,1.6460702419281006,0.9749256372451782,-0.8177845478057861,-0.24139940738677979,0.48527026176452637,0.07113298773765564,0.620019793510437,-0.11764757335186005,-1.2556532621383667,0.03474357724189758,-0.2564776837825775,-0.749981701374054,0.5230006575584412,-0.057303428649902344,1.9101080894470215,-0.28081247210502625,-1.0613319873809814,-1.3669779300689697,-0.18542787432670593,-0.19948408007621765,0.1269066333770752,-0.44913873076438904,0.6774185299873352,-0.33080047369003296,0.6648114323616028
deep,-1.3639073371887207,-0.7698985934257507,-1.5970244407653809,0.23858076333999634,-0.6157720685005188,-0.2243424355983734,0.5911228060722351,1.3060119152069092,0.6165418028831482,-0.9196047782897949,0.8027005791664124,-0.8636321425437927,-0.479939341545105,0.8033115267753601,-0.8661996722221375,-1.040605068206787,-0.5676496028900146,-1.241603970527649,0.04958111047744751,0.4467843770980835,-1.6522102355957031,0.8946006298065186,-1.1295067071914673,-0.36919450759887695,0.8465542197227478,0.2576391100883484,-0.36377766728401184,1.3187620639801025,-1.7186970710754395,0.35567644238471985,-1.3355798721313477,-0.33884936571121216,0.8837845325469971,-0.4687815308570862,0.36028867959976196,-1.9998809099197388,-0.48926079273223877,-0.2573506236076355,2.4645261764526367,0.522831916809082,-0.9657710194587708,0.24258887767791748,-0.0030692219734191895,1.6257940530776978,0.5402096509933472,-1.1098592281341553,-1.4249862432479858,-0.7829108834266663,0.9107116460800171,0.6403250694274902,0.6692641973495483,1.1587860584259033,-0.8151935935020447,1.2451763153076172,0.9647756218910217,2.104950428009033,0.30295565724372864,-0.2322370707988739,0.1833922564983368,0.3090226650238037,-0.9041429162025452,-1.4992196559906006,-0.6195632219314575,0.04985293000936508,0.6858972311019897,-0.5316438674926758,0.6642014384269714,-0.2689473032951355,-0.5014621019363403,-0.3987794518470764,-0.45450741052627563,0.5232540369033813,-1.4104267358779907,0.03794516623020172,-0.6227478384971619,-0.1586337685585022,1.7823739051818848,0.20205456018447876,1.0239180326461792,-0.2830420732498169,-0.12373396754264832,0.2658328115940094,0.8835954070091248,0.39061567187309265,-0.13045382499694824,1.7110633850097656,0.4654952883720398,0.1820334792137146,-0.04109273850917816,-0.4065243601799011,0.5820361971855164,-0.02756156027317047,1.132076621055603,1.2289412021636963,-1.1511379480361938,-0.11424924433231354
broad,-0.6051465272903442,-1.0475043058395386,-1.2127788066864014,-0.9218199253082275,-0.9283936023712158,0.44043129682540894,0.5609055757522583,1.0569589138031006,-0.8292926549911499,-1.1011340618133545,0.45087385177612305,-0.04813413321971893,-0.3029150664806366,1.3572325706481934,-1.074537992477417,-1.3067357540130615,-0.837628960609436,-1.0592105388641357,0.593477725982666,0.8428046703338623,-0.9568536281585693,-0.014726459980010986,-0.6846324801445007,0.14268909394741058,0.23218867182731628,-0.5395779609680176,-0.6182541251182556,1.5328823328018188,-1.3126425743103027,-0.7417446970939636,-0.08425313234329224,0.12958891689777374,0.38801831007003784,-0.4815361499786377,0.24741709232330322,-1.346078872680664,0.8251194357872009,0.09624473005533218,1.7179484367370605,0.13953083753585815,-0.375716894865036,-0.8684030771255493,0.3232131004333496,-0.3584281802177429,0.302382230758667,0.08270329236984253,-1.1198738813400269,-1.0605757236480713,0.576952338218689,0.7191460132598877,0.41344261169433594,1.2688665390014648,-1.4557416439056396,0.7265068888664246,0.14469420909881592,1.4495079517364502,0.23784148693084717,0.36478471755981445,-0.01148994266986847,0.6422020196914673,0.29276078939437866,-1.4942117929458618,-0.8214535117149353,-0.1666974574327469,0.2729140520095825,0.23329100012779236,-0.0998380035161972,-1.1155173778533936,0.5734081864356995,0.37447357177734375,-0.16180582344532013,0.5933408737182617,-0.9695152044296265,0.2746717631816864,-0.571856677532196,0.5686213970184326,0.46976232528686523,-0.4006260633468628,0.05711391568183899,-0.6340319514274597,-0.17933869361877441,-0.5683773756027222,0.819769024848938,0.24986973404884338,0.036054402589797974,2.2750635147094727,0.005525216460227966,0.75471031665802,-0.7094358205795288,1.3709509372711182,0.5967346429824829,0.11464399099349976,1.9455493688583374,1.734015703201294,-0.6843003034591675,0.09363538026809692
analysis,-1.1920570135116577,-0.4589301645755768,-0.5809338092803955,0.34798264503479004,0.4315964877605438,-0.4193744361400604,1.5070019960403442,1.3421603441238403,0.5196642875671387,-0.8590367436408997,0.7995724081993103,-1.2400315999984741,0.25578275322914124,-0.25146517157554626,0.8859735727310181,1.1488983631134033,-0.41403502225875854,-1.7525123357772827,0.7387876510620117,0.37184417247772217,0.6985176205635071,-0.08687439560890198,0.4743214249610901,-0.66435706615448,-0.036923885345458984,0.3452346622943878,0.08150382339954376,1.0121850967407227,0.09981022775173187,-0.06733715534210205,0.46636176109313965,0.31294941902160645,1.1629709005355835,-0.8683242201805115,-0.2609095573425293,-0.9065051674842834,0.6285107135772705,-0.21488934755325317,1.2325223684310913,-0.32373160123825073,-0.28852468729019165,0.4723128080368042,1.1553890705108643,0.06665274500846863,0.03001844882965088,-0.8817191123962402,-1.2700392007827759,0.5525472164154053,-0.04017733782529831,-1.168459177017212,0.2840391993522644,0.2124556601047516,1.9315690994262695,-0.8192448019981384,0.761539101600647,0.0816182792186737,0.49806106090545654,0.13866174221038818,0.5236527323722839,-0.12310950458049774,-0.5902733206748962,0.1660623848438263,-0.15714168548583984,-0.42580050230026245,0.9954306483268738,1.1725172996520996,-0.08998334407806396,-0.9555028080940247,-0.09721297025680542,-0.9215200543403625,0.48224157094955444,0.3903384208679199,1.743460774421692,-0.21428599953651428,-0.4619508385658264,-0.5617915391921997,-0.3874683380126953,-0.25007349252700806,0.27491793036460876,-0.7965505123138428,-0.5457737445831299,-0.3557242155075073,-2.2622952461242676,-1.291609287261963,0.3967711329460144,0.8624076843261719,-0.5982470512390137,0.07654538750648499,-0.20414909720420837,0.7423317432403564,-1.0134484767913818,-0.892285168170929,1.3327186107635498,0.49515703320503235,-1.0395560264587402,1.224437952041626
specific,-1.9939770698547363,-1.5263012647628784,0.08287402987480164,-0.36922475695610046,-0.39607083797454834,0.1648125946521759,0.590644896030426,-0.22375163435935974,0.0695120245218277,-1.9275368452072144,0.3892156481742859,-0.5396814346313477,0.0794050469994545,0.5317631959915161,-1.4036685228347778,1.3262553215026855,-0.24631646275520325,-2.0677967071533203,-0.14578068256378174,1.045095443725586,-1.274530053138733,0.7267046570777893,-0.7336735129356384,-0.33141911029815674,0.33103063702583313,0.13401839137077332,0.4560088515281677,0.38263872265815735,-1.3167612552642822,0.8820596933364868,0.38991522789001465,-0.8984825611114502,1.1320202350616455,0.16327086091041565,0.7665618062019348,-1.023403286933899,0.648286759853363,-0.6592510938644409,0.20925894379615784,0.08028507232666016,-0.6931819319725037,0.6398215889930725,0.39360275864601135,0.36229294538497925,-0.0403544157743454,-1.015921950340271,-0.8933607339859009,-1.104013442993164,-0.04035383462905884,1.2534948587417603,0.8990635275840759,0.2944496273994446,-0.7614881992340088,0.42350244522094727,-0.9557985663414001,2.5035641193389893,0.32662445306777954,0.8377735018730164,-0.2536398768424988,0.8470340967178345,-0.9225508570671082,-1.8951493501663208,-0.8793342113494873,-0.09445962309837341,0.2097458839416504,-0.1384826898574829,-0.5426401495933533,-0.4296492040157318,0.43956583738327026,-0.14606009423732758,1.7570717334747314,0.5131850242614746,-1.2406960725784302,-0.3765563368797302,-0.21256572008132935,-0.7804098725318909,-0.07025309652090073,-0.3387441039085388,0.9350447058677673,-0.9430283308029175,-0.4267594814300537,-0.2310408353805542,-0.4724216163158417,0.9343283772468567,0.39778485894203186,1.167862892150879,-0.13540761172771454,0.7309588193893433,-0.1387622058391571,0.4803923964500427,0.10919469594955444,0.9314491748809814,1.7026567459106445,1.2942008972167969,0.09454023838043213,1.425492525100708
case,-0.8786053657531738,-0.8864508867263794,-1.0175223350524902,0.7364320158958435,-0.3750760853290558,0.22783666849136353,1.8907197713851929,1.7393574714660645,0.44277453422546387,-0.3619602620601654,1.3390402793884277,-1.1103641986846924,-0.7522913217544556,-0.3212754726409912,0.16352829337120056,1.5189862251281738,-0.9398000836372375,-1.440320611000061,0.4721136689186096,0.545041561126709,1.179624080657959,0.5674340724945068,0.455744206905365,-0.697643518447876,0.9880218505859375,0.45659419894218445,0.8084875345230103,0.6038210988044739,-0.18032890558242798,-0.30723845958709717,0.5266324877738953,0.29624125361442566,0.446686714887619,-0.33177870512008667,-0.06137457489967346,-0.7237732410430908,-0.5571169853210449,0.617195725440979,1.0174171924591064,0.11904394626617432,-0.5855018496513367,0.5298194289207458,0.16627904772758484,-0.2139870971441269,-0.36962777376174927,-0.8678910732269287,-0.8871941566467285,1.5724382400512695,-0.5758963227272034,0.025512829422950745,0.041175082325935364,0.27543139457702637,1.0685720443725586,-0.37839314341545105,-0.146299809217453,-0.3924591541290283,0.7774519920349121,-0.9620854258537292,1.4905712604522705,-0.5547363758087158,-0.7402909994125366,-0.2538994252681732,0.07374727725982666,-0.2902502715587616,2.129941940307617,0.40196552872657776,-0.8284139633178711,-0.5587724447250366,0.33959436416625977,-1.0711312294006348,0.7344688177108765,0.2649930417537689,1.9644278287887573,-0.31937626004219055,-0.46612828969955444,-0.7830078601837158,0.4670264720916748,-0.11631826311349869,0.9309736490249634,-0.7973124384880066,-0.18312206864356995,-0.9837033748626709,-1.7671620845794678,-1.1513087749481201,-1.1160197257995605,1.0382342338562012,-0.6222690343856812,-0.7823668122291565,-0.9047611951828003,0.6918510794639587,-0.8015844821929932,-0.08009380102157593,1.2640105485916138,0.102393239736557,-0.6927615404129028,0.3327954411506653
rom,0.0674019455909729,0.1016371101140976,-0.656937837600708,-0.1331610530614853,-0.18787336349487305,-0.2633846700191498,0.3003472089767456,0.5670872330665588,0.367334246635437,0.1631910800933838,1.39306640625,-1.0778928995132446,-1.1149095296859741,-0.2400248944759369,-0.6387157440185547,0.7176486253738403,-0.960578978061676,-0.9246249198913574,0.6635526418685913,1.2121427059173584,-0.785946249961853,0.24918028712272644,0.09854727983474731,-1.2404022216796875,1.275984764099121,0.2040584236383438,1.8137439489364624,0.02109891176223755,-0.6954622864723206,1.7621970176696777,0.2004753053188324,-0.7321037650108337,0.24149557948112488,-1.0968284606933594,-0.15114276111125946,-1.570643663406372,-0.8838446140289307,-0.07968834042549133,0.6175835132598877,-0.2546960711479187,-0.5395830869674683,-1.0527300834655762,0.47913122177124023,-0.32421672344207764,0.5026103854179382,-1.0267738103866577,1.0680036544799805,-0.9296198487281799,1.5137808322906494,0.4072507321834564,0.8841726183891296,0.11872509121894836,-0.48447245359420776,-0.2216140329837799,-1.4545468091964722,-0.28547877073287964,1.219454050064087,-0.18212753534317017,0.48871657252311707,-0.44990041851997375,-1.3479766845703125,-1.2759510278701782,-0.26376500725746155,-0.2728986442089081,0.7463847398757935,0.24654600024223328,-0.45680856704711914,-1.4174182415008545,0.7891741394996643,0.5847012400627136,0.5333691835403442,0.8585817813873291,-0.1845211386680603,-0.010325461626052856,0.2118518352508545,0.7282693386077881,-0.6112105846405029,1.51958429813385,1.3969238996505737,0.2004680037498474,-0.24014538526535034,-0.14872092008590698,-0.06018401309847832,-0.34508535265922546,1.406752347946167,0.9573627710342407,2.1025400161743164,0.2714712619781494,-0.92679762840271,0.41829752922058105,-1.0652987957000732,1.0120165348052979,-1.114510416984558,0.31886595487594604,-0.9052447080612183,0.9409446716308594
review,-1.2210052013397217,-1.1116185188293457,-0.8065488338470459,0.2486998438835144,0.3485960066318512,-0.16636840999126434,1.3125991821289062,1.1970117092132568,0.3864954113960266,-0.36332401633262634,0.5959701538085938,-0.5519012212753296,-0.4499473571777344,-0.6517513990402222,0.2713358998298645,1.039818286895752,-0.6382122039794922,-1.0265436172485352,0.49548855423927307,1.048870325088501,-0.16505783796310425,1.2356740236282349,-0.8310571312904358,-0.6531012058258057,0.10229678452014923,1.3053886890411377,-0.5315414071083069,0.9782291650772095,-0.11406488716602325,0.017926372587680817,-0.26631563901901245,0.5502629280090332,1.4183928966522217,-0.044619977474212646,-0.202903613448143,-0.759590744972229,-0.7440181970596313,0.08145014941692352,0.4472149610519409,-0.7253292202949524,-0.15806996822357178,1.349402666091919,0.5220353603363037,0.44124841690063477,-0.45724543929100037,-0.6323862075805664,-0.9592487812042236,0.45669692754745483,-0.02554534375667572,0.807964026927948,-0.23980072140693665,0.9541236758232117,-0.23055621981620789,-0.8503848910331726,0.8939982056617737,-0.7458328008651733,2.4526185989379883,-0.03736034035682678,-0.26073411107063293,-0.6413989067077637,-1.4025702476501465,0.30709129571914673,0.28325313329696655,-1.0192104578018188,0.6573026180267334,0.13934165239334106,-0.6752442121505737,-0.7818746566772461,-0.19877029955387115,0.6221432089805603,0.2404380738735199,0.892166018486023,1.4835803508758545,-0.3776908218860626,0.098452627658844,-0.0662042498588562,-0.41886189579963684,1.0501484870910645,0.6965247392654419,-1.5361156463623047,-0.5153587460517883,-0.6491246223449707,-1.548659324645996,-0.05436854064464569,0.09080445766448975,0.5725691914558411,-1.03317391872406,-0.8055881261825562,-1.201609492301941,0.46347180008888245,-0.2798272371292114,-0.8934860229492188,0.8455663919448853,0.5354913473129272,0.16268736124038696,1.9719815254211426
lead,-1.5102919340133667,-0.8576991558074951,0.3243325650691986,0.2991470992565155,-0.7409553527832031,-0.050775229930877686,0.712706446647644,1.0888252258300781,0.6046119928359985,-0.882230818271637,-0.22887775301933289,-0.4220066964626312,-1.1424288749694824,-0.44457313418388367,0.8077404499053955,0.8223024010658264,0.42113566398620605,-1.862326741218567,0.2091558426618576,0.34781572222709656,-1.5179052352905273,0.5009690523147583,-0.7118655443191528,0.16369491815567017,0.15931648015975952,0.6447430849075317,-0.2723558843135834,0.9327778816223145,-0.4254065155982971,-0.5082620978355408,-0.05234712362289429,0.0034193694591522217,0.20575609803199768,0.12167221307754517,-0.7366893291473389,-1.4605906009674072,0.3210700452327728,-0.23957166075706482,1.4793096780776978,-0.5203456282615662,1.0447981357574463,0.35170280933380127,-1.0068491697311401,-0.24919891357421875,-0.07809585332870483,-0.6261309385299683,-0.09509643912315369,-0.18554073572158813,0.8591828942298889,1.0029361248016357,-0.01655638962984085,-0.34534019231796265,-0.5156941413879395,-0.4066923260688782,1.4134613275527954,-0.8002455830574036,1.0262972116470337,-1.6117370128631592,-0.16054271161556244,0.0363960936665535,-0.41247302293777466,-0.6134167313575745,0.10490357875823975,-0.04012075066566467,1.4427884817123413,0.3807472586631775,0.05458971858024597,-0.5421802997589111,0.9188910722732544,-0.32763946056365967,0.39619919657707214,1.279114842414856,0.15303218364715576,-0.5550700426101685,-0.4191047251224518,0.772490918636322,-0.36068040132522583,1.074028491973877,0.4361426532268524,-1.592920184135437,-0.2003413736820221,0.725267231464386,-0.391196608543396,0.08432083576917648,0.5857172608375549,1.1471048593521118,0.558359682559967,-0.3793914318084717,-1.2193266153335571,0.2157522737979889,-0.16641803085803986,-0.5910714864730835,0.11217252910137177,1.7040187120437622,-0.5191290974617004,0.5187872648239136
conclusion,-1.38671875,-0.7922384738922119,-0.8833810091018677,0.5458108186721802,0.575287938117981,0.8697652220726013,2.281528949737549,1.798419713973999,-0.05214966833591461,-0.6128891706466675,0.942594051361084,-0.6583390235900879,-0.7107207775115967,-0.9094922542572021,0.5296528339385986,0.40406960248947144,-1.0638505220413208,-1.6456409692764282,0.4037608802318573,0.34692269563674927,-0.4997481107711792,0.8613405227661133,0.11737821996212006,-0.7812389135360718,-0.24068588018417358,0.4136947989463806,0.24922457337379456,0.9232847690582275,0.11490315198898315,-0.23145979642868042,0.3205353021621704,0.008243024349212646,0.6264523267745972,-0.6162241101264954,-0.8634542226791382,-0.9264013767242432,0.5719138383865356,0.311847448348999,1.2510347366333008,-0.1920013427734375,-0.39406371116638184,0.35046321153640747,-1.1801111698150635,-0.2608964443206787,-0.3940093517303467,-0.7053486108779907,-1.4603384733200073,0.9043149948120117,-0.44670650362968445,-0.11634550988674164,-0.41857296228408813,0.692234218120575,-0.047618716955184937,-0.20084774494171143,1.4045510292053223,-0.5530036687850952,1.2163056135177612,-0.978731632232666,-0.059956178069114685,0.19594800472259521,-0.07857230305671692,-0.7121329307556152,0.1998206228017807,-0.8284978270530701,1.6418814659118652,0.5422648191452026,-0.3821883797645569,-0.5439872741699219,0.6127862334251404,-0.5793170928955078,1.479736328125,0.7941126823425293,2.0816898345947266,-0.569709837436676,-0.00921410322189331,-0.03309747576713562,-0.7567941546440125,-0.35993194580078125,0.6018544435501099,-1.200084924697876,0.09664636850357056,-0.11138412356376648,-1.1074552536010742,-0.4383770823478699,0.601356565952301,1.5464184284210205,-0.2707362473011017,-0.956960916519165,-1.4753320217132568,0.829491913318634,-0.439378947019577,-0.9786925911903381,0.8297175168991089,0.7497256398200989,-0.8907082676887512,1.4720666408538818
mid,-0.9907326698303223,-0.7230560779571533,0.1866886019706726,-0.05681543052196503,0.0484231561422348,0.9586801528930664,0.313799113035202,1.690218448638916,0.6021728515625,-0.7690485715866089,2.7234508991241455,0.37236976623535156,0.8378532528877258,0.9258087277412415,-0.6484529972076416,-0.046446267515420914,-0.038615912199020386,-1.059262990951538,-0.43067288398742676,1.5345405340194702,-0.9951212406158447,0.7280570268630981,-1.0009000301361084,-0.7864991426467896,1.454803466796875,1.3387130498886108,0.5698114633560181,1.8495885133743286,-0.8280789256095886,0.8626158237457275,-0.5580919981002808,-0.639054536819458,1.6640982627868652,0.4579123854637146,-0.524384617805481,-2.204228162765503,0.09093443304300308,1.662912368774414,0.2132406234741211,-0.5921207666397095,-2.1284432411193848,-0.06714355945587158,0.008629798889160156,-0.5914039015769958,0.5716952085494995,-0.8821689486503601,-0.07331883907318115,-0.693636417388916,0.6777269840240479,0.02224785089492798,1.7179648876190186,0.9901880025863647,-0.5542024970054626,-1.4945448637008667,0.2625006139278412,-0.027320146560668945,0.8335542678833008,-0.40157100558280945,-0.9051224589347839,0.9504137635231018,-0.10304446518421173,0.23083224892616272,-0.35556653141975403,0.35381895303726196,0.787093460559845,0.5809844732284546,-0.4632952809333801,0.12410843372344971,0.6326030492782593,1.2415103912353516,0.3589528501033783,-0.6197767853736877,-0.677894115447998,0.15369653701782227,-1.1459903717041016,-0.717877984046936,-0.4230458736419678,-0.012714743614196777,-0.6944959163665771,-1.0258073806762695,-1.3042395114898682,-0.5624915361404419,-0.8832002282142639,0.3734416961669922,1.1202937364578247,0.02873973548412323,1.3801928758621216,1.0559567213058472,-0.3931293487548828,-1.2389353513717651,-0.46712857484817505,0.618134081363678,0.6413812041282654,0.05069682002067566,-0.5276070237159729,2.357630491256714
evaluation,-2.0836687088012695,-0.19436126947402954,-0.4236098825931549,-0.14984360337257385,0.4398040175437927,-0.023857686668634415,1.024010181427002,1.4222718477249146,-0.3291945457458496,-0.3751855790615082,0.4647659957408905,-0.40537533164024353,-0.491000235080719,-0.1401454210281372,-0.5298261046409607,0.6857560873031616,-1.0839283466339111,-1.074389934539795,0.6114681959152222,0.9171227812767029,-0.29463139176368713,0.7849107980728149,0.4263893961906433,-0.9859237670898438,-0.018299847841262817,0.4016651511192322,-0.2649003267288208,0.8632069230079651,0.1988769769668579,-0.4998846650123596,0.11025983095169067,-0.12312886118888855,1.3961790800094604,0.2362290769815445,-0.3252893388271332,-0.8599136471748352,0.4926956593990326,0.6805799007415771,0.6529003381729126,-0.6781085729598999,-0.10744810104370117,-0.2876478135585785,-0.9382333755493164,0.9782736301422119,-0.4356571435928345,-0.7210448980331421,-1.3018028736114502,0.5954465866088867,0.3692134618759155,-0.5262228846549988,-0.14650042355060577,1.8365604877471924,0.7008812427520752,-0.4405951499938965,0.9299163818359375,0.08624669909477234,1.3059958219528198,-0.61928391456604,-0.4547662138938904,-0.38078027963638306,-0.9047573804855347,-0.3920350968837738,-0.030140236020088196,-0.5420796871185303,0.742689311504364,0.5016741752624512,-0.7371604442596436,-0.5295940041542053,0.6679925918579102,-0.43334680795669556,0.5058882832527161,0.2775060534477234,1.3530100584030151,-0.5463716983795166,0.3395541310310364,-0.28631049394607544,-0.8578066229820251,-0.3590432107448578,0.2602059245109558,-0.711431622505188,0.12343427538871765,0.5883796215057373,-1.784977912902832,-0.7266427874565125,0.3352828621864319,1.35662841796875,-0.48837536573410034,-0.8366832137107849,-1.1360692977905273,1.2763481140136719,-0.9998145699501038,-0.6320219039916992,1.065322995185852,0.7592985033988953,0.1395086944103241,1.8379507064819336
necessary,-0.8053971529006958,-1.251737117767334,-1.0243687629699707,0.36175841093063354,-1.049583911895752,1.0594531297683716,1.137913465499878,1.3991955518722534,-1.0660654306411743,-1.3745191097259521,0.4039613902568817,0.29953160881996155,-0.22922077775001526,1.9544880390167236,-0.683739423751831,-0.35389989614486694,-0.6369332075119019,-1.033951759338379,0.24092522263526917,0.9449983835220337,-1.2305829524993896,0.7050919532775879,-0.6901000738143921,1.2631763219833374,-0.10141997039318085,0.1373802125453949,0.03415335714817047,1.8559658527374268,-1.2971216440200806,0.5839385986328125,-0.38456201553344727,-0.27689293026924133,1.3014024496078491,-0.2980489134788513,0.7409520149230957,-0.8624091148376465,0.8938825726509094,-0.3675176501274109,1.9288020133972168,0.640276312828064,-0.8722138404846191,-0.3803331255912781,0.0633983314037323,0.5041075944900513,0.5327255725860596,-0.5531017780303955,-1.5347594022750854,-0.7425718903541565,-0.5702649354934692,0.02961912751197815,0.28025731444358826,0.9534932374954224,-0.022729307413101196,-0.0008970201015472412,0.809475302696228,2.5125534534454346,0.749584436416626,-0.28476646542549133,-0.45850080251693726,0.2781931757926941,-1.1201701164245605,-0.6150984764099121,-0.8352010250091553,0.5094810724258423,0.08292865753173828,-0.7209253907203674,-0.7597535848617554,-0.7817201614379883,0.10473650693893433,1.2059012651443481,0.28478866815567017,-0.39764922857284546,-0.4466102123260498,-0.9885074496269226,-1.049649953842163,-0.31858983635902405,0.013250693678855896,0.9478409886360168,0.4855079650878906,-0.9885996580123901,-1.0969380140304565,-0.9787432551383972,-0.7204397916793823,1.3399555683135986,0.013581618666648865,2.0991294384002686,0.6966358423233032,0.9101837277412415,-0.8584916591644287,-0.32529133558273315,0.6910247802734375,-0.20401114225387573,1.5222781896591187,0.6600834727287292,-1.1162662506103516,0.7258915901184082
define,-1.4111982583999634,-1.147613286972046,-0.327580988407135,0.5147039294242859,-0.685490608215332,-0.14049625396728516,0.37935584783554077,0.8306575417518616,0.16671383380889893,-1.0156234502792358,0.07565025985240936,-0.6049370765686035,-0.6038511395454407,-0.06433666497468948,0.3422062397003174,1.1763533353805542,0.4816089868545532,-1.648256778717041,-0.06540524959564209,0.19974368810653687,-0.32235413789749146,0.3568234443664551,-0.9385752081871033,-0.3500733971595764,0.3223420977592468,0.6761848330497742,-0.047297000885009766,1.0571131706237793,-0.44881168007850647,-0.709527313709259,0.03059709072113037,1.7613134384155273,0.38731318712234497,-0.6275265216827393,1.0470573902130127,-1.6417057514190674,0.33109578490257263,-0.2657601833343506,1.8683732748031616,-1.5696079730987549,1.1779006719589233,0.5074598789215088,-1.2080589532852173,0.11396794021129608,-0.11568105220794678,-1.0359138250350952,1.2032194137573242,-1.0238609313964844,1.428405523300171,-0.5206370949745178,0.1873125284910202,0.01286354660987854,-0.9054632782936096,-0.42813074588775635,1.650417447090149,-0.7616125345230103,0.752945601940155,-0.8488186597824097,-0.9881940484046936,-0.48067963123321533,-1.5596084594726562,0.8947970867156982,-0.6821911334991455,0.3988500237464905,0.6818549036979675,1.0305404663085938,-0.05535227060317993,-0.7077659368515015,1.1337612867355347,1.0641425848007202,-0.009501911699771881,0.6438663005828857,1.6507045030593872,1.0965499877929688,-0.6160043478012085,0.6467466950416565,0.06993168592453003,1.209728717803955,1.1417710781097412,-1.06316339969635,-0.5908846855163574,-0.014193296432495117,-1.0089272260665894,-0.14721044898033142,0.515595555305481,1.2550321817398071,-0.24750876426696777,-0.3510206341743469,-1.3716036081314087,0.1574927568435669,-0.8876557946205139,0.12765806913375854,0.00960126519203186,1.3680996894836426,-1.0124150514602661,0.6306056976318359
approach,-1.9328216314315796,-1.0546574592590332,-1.4615293741226196,-0.20516832172870636,-0.4775215983390808,0.1477200984954834,0.9068851470947266,2.0814921855926514,-0.06043964624404907,-0.2942725419998169,0.3356448709964752,-1.2786694765090942,-0.4162970185279846,-0.9646561145782471,-0.13520732522010803,0.5604068636894226,-0.7390005588531494,-0.8370727300643921,0.09541551768779755,0.8104920983314514,0.44800132513046265,1.2092665433883667,0.09667271375656128,-1.1381120681762695,0.5095398426055908,0.7566232681274414,-0.6799740195274353,2.0117831230163574,-0.2787076234817505,0.7002702951431274,0.3034634292125702,0.4063946604728699,-0.05088844895362854,0.5675580501556396,-0.7185651063919067,-0.7055990099906921,0.48452699184417725,0.27537211775779724,1.7018193006515503,-0.7258428335189819,0.268306702375412,0.4433131217956543,-0.635890781879425,0.07200559973716736,-0.04187163710594177,-0.34502294659614563,-0.3192809820175171,-0.5593737363815308,-0.9225264191627502,0.06887441873550415,-0.16224563121795654,1.0390074253082275,-0.05630786716938019,-0.08243344724178314,1.8697268962860107,0.13078074157238007,0.48890647292137146,-0.9422340989112854,-0.11649622023105621,-0.12350834906101227,-0.12615691125392914,0.4079260528087616,0.38498613238334656,-0.9017778635025024,1.3573170900344849,0.878407895565033,-0.4340382516384125,-0.6582227945327759,-0.5047476887702942,1.5063929557800293,0.5378283262252808,0.7551689743995667,2.7664127349853516,-0.8745165467262268,-0.7717365026473999,0.043897971510887146,-0.7314510345458984,0.9194275140762329,0.51054847240448,-1.3079700469970703,-0.6259635090827942,-0.18507860600948334,-0.6414906978607178,-0.7882061004638672,0.05743229389190674,0.7994287014007568,-0.23478230834007263,-0.1555098444223404,-2.3264832496643066,0.26799875497817993,-1.1228394508361816,-0.10631918907165527,0.5335628986358643,0.5925306081771851,1.1298413276672363,1.153229832649231
condition,-1.3135716915130615,-0.6876057982444763,-1.0668878555297852,-0.09409196674823761,-0.05089159309864044,0.4056861400604248,1.9761921167373657,1.0687711238861084,-0.18505427241325378,-0.9941489696502686,1.1254513263702393,-0.42444247007369995,0.0386740118265152,-0.41265928745269775,0.003393888473510742,0.5533843040466309,-0.5891669392585754,-1.8991835117340088,0.953833281993866,0.3921721577644348,1.3006516695022583,0.8167831301689148,0.6145922541618347,-0.8781251907348633,0.06318002939224243,-0.22894209623336792,-0.17795395851135254,0.8506535291671753,-0.27043384313583374,-0.32794371247291565,0.7415564656257629,-0.22916309535503387,0.9477983117103577,-0.42882245779037476,-0.21998891234397888,-1.1245977878570557,0.0742916613817215,-0.9049376845359802,1.1684643030166626,0.6448982357978821,-0.8691781759262085,0.5176481008529663,0.6020691394805908,0.24793988466262817,0.50958251953125,-1.0310418605804443,-1.4424574375152588,0.35282689332962036,-0.11471447348594666,-0.6702257394790649,-0.14150328934192657,1.0063543319702148,1.7427667379379272,-0.8996466398239136,1.6595380306243896,-0.3944757282733917,0.6955727338790894,-0.859584629535675,0.22218982875347137,-1.016249656677246,-0.9233167767524719,-0.09795311093330383,-0.057770535349845886,0.2049766182899475,1.2188231945037842,-0.2195509672164917,-0.44474154710769653,-1.0843244791030884,0.12805801630020142,-0.413424015045166,0.6687695384025574,0.3624882698059082,2.3591179847717285,-0.16729943454265594,0.06279502809047699,-0.5073431730270386,-0.4708925783634186,0.03843078017234802,0.5047276020050049,-0.6450210213661194,-0.4872669577598572,-0.275005578994751,-1.7206339836120605,-0.6464670896530151,0.211689293384552,1.4149954319000244,0.08775050193071365,-0.7183766961097717,-1.1144556999206543,0.9929021596908569,-0.27752962708473206,-0.7677781581878662,0.9151182770729065,1.000053882598877,-0.12596890330314636,0.8279645442962646
intervention,-1.2752820253372192,-0.44969967007637024,-1.3591634035110474,0.2587544918060303,0.8701782822608948,0.1040041521191597,2.184420585632324,1.3953875303268433,0.01762816309928894,-0.5058268904685974,0.5834779739379883,-0.9167313575744629,-0.1794220209121704,-0.5766968727111816,0.19186103343963623,0.6956108808517456,-0.4196702837944031,-1.6650876998901367,-0.11255538463592529,0.2851775884628296,-0.9813500046730042,0.3672401010990143,0.09844252467155457,-0.7686244249343872,0.09828686714172363,0.2641189694404602,-0.1545618623495102,2.110311508178711,-0.1552525758743286,0.4032471179962158,0.6113848686218262,-0.23056089878082275,0.6673108339309692,-0.12355610728263855,-0.32702335715293884,-1.3246314525604248,-0.09122864902019501,0.6267470121383667,0.7225857973098755,0.008666545152664185,-0.25479331612586975,0.6148460507392883,-0.9442123174667358,0.18428456783294678,-0.5364474654197693,-0.46142369508743286,0.14798074960708618,0.3645906448364258,0.06011494994163513,-0.21309787034988403,-0.06237956881523132,0.5611395835876465,0.7326176762580872,-0.20279699563980103,1.461582064628601,-1.0340090990066528,0.9232718348503113,-0.5361099243164062,0.38221821188926697,0.1773618906736374,-0.6478385329246521,-0.046590447425842285,0.10461105406284332,-0.6230920553207397,0.4605790376663208,0.025885581970214844,-0.4552900195121765,-0.22544565796852112,-0.11711077392101288,-0.14400601387023926,1.284621238708496,0.8627793788909912,1.8101921081542969,-0.28646862506866455,-0.1059129387140274,-0.6078477501869202,-0.5749426484107971,-0.15965691208839417,0.4500686824321747,-1.2300282716751099,-0.329700231552124,-0.5888100862503052,-1.1044533252716064,-0.6487779021263123,-0.24913451075553894,1.3215590715408325,-0.36662301421165466,-0.5293143391609192,-0.6688575744628906,0.4083899259567261,-0.24550172686576843,-0.3183693587779999,1.224630355834961,0.8095259666442871,-0.31040629744529724,1.2971616983413696
wi,0.19253665208816528,-0.6931301951408386,-1.2177742719650269,-0.4877279996871948,-0.1036275252699852,-0.1256079077720642,0.04294097423553467,1.3286337852478027,-0.0730663388967514,-0.7099445462226868,1.8457622528076172,-1.0467345714569092,-0.2994922399520874,-0.03365311026573181,-1.2175211906433105,-0.010112762451171875,-0.6073533296585083,-1.1427288055419922,-0.05180114507675171,1.5953110456466675,-0.12407582253217697,0.6595178246498108,-1.0285422801971436,-0.4339883029460907,0.45482000708580017,-0.637488067150116,-0.3154696226119995,2.1316869258880615,-1.3989973068237305,0.7185547351837158,-0.33228594064712524,-0.8081023097038269,1.8581583499908447,-0.17049549520015717,0.057358261197805405,-0.7476645708084106,0.5868157148361206,1.3135579824447632,1.8212181329727173,-0.048448920249938965,0.14826035499572754,-1.1432960033416748,0.5305362939834595,0.37394607067108154,0.33555668592453003,-1.3271985054016113,0.6810411810874939,-0.5559755563735962,0.4140719175338745,0.5521435737609863,0.6843827366828918,0.19064129889011383,-0.8664426803588867,0.741159975528717,-0.14634829759597778,0.17264455556869507,1.2573076486587524,0.3569660782814026,0.1849624216556549,0.5218039751052856,-1.2624528408050537,-2.041008472442627,-0.670993447303772,-1.4853229522705078,1.135262370109558,0.517266035079956,0.550747275352478,-0.16053488850593567,0.4097447693347931,-0.17789345979690552,0.9637753963470459,0.02898743748664856,-1.852644920349121,1.6409823894500732,0.006415367126464844,0.8138895034790039,-0.27594032883644104,0.7842525839805603,0.7568074464797974,-1.1312448978424072,-1.2596766948699951,-1.3792545795440674,-0.02201402187347412,0.2779370844364166,-0.7718694806098938,0.9412415623664856,1.0454316139221191,0.5936647653579712,-0.8548054099082947,0.33175477385520935,0.44321388006210327,0.6382177472114563,1.671175479888916,0.5561628341674805,-0.28300735354423523,0.33879274129867554
thout,-0.9741262197494507,-0.425525039434433,-0.8483745455741882,0.13130393624305725,-0.16850388050079346,-0.5817903280258179,-0.31401127576828003,0.21801471710205078,-0.299236923456192,-0.8278714418411255,0.4353879988193512,-0.833079993724823,-0.45840805768966675,0.4394820034503937,0.22661402821540833,0.9273736476898193,0.5413154363632202,-1.8343405723571777,0.04641982913017273,0.04386274516582489,-2.1841118335723877,0.43511104583740234,-0.2625430226325989,0.18068891763687134,1.8585008382797241,0.16047239303588867,0.20575040578842163,1.4965331554412842,-0.06690549850463867,-0.04709264636039734,-0.02131706476211548,0.5386887788772583,0.08922410011291504,0.18056650459766388,0.21574808657169342,-0.3093487620353699,0.4964568018913269,-1.045594334602356,1.115125060081482,0.470630943775177,-0.7425804138183594,-0.582497239112854,0.40594810247421265,1.0673868656158447,0.619594395160675,-0.06710097193717957,0.39034783840179443,-0.6204253435134888,0.6073005795478821,-0.7224010229110718,0.7046881318092346,-1.1798845529556274,-0.2011822909116745,0.39687687158584595,0.41599488258361816,-0.4563194811344147,0.7114657759666443,-0.6529089212417603,0.5360821485519409,-0.13795724511146545,-0.7736347317695618,-1.1814067363739014,0.4680023789405823,-0.8080015182495117,0.7691542506217957,0.031793415546417236,0.24585789442062378,-1.1996413469314575,0.8619246482849121,-0.8999036550521851,0.2570667266845703,0.8317598104476929,-0.03666752576828003,1.087885856628418,-0.6913629770278931,0.7752677202224731,-0.5244467258453369,0.9458457231521606,1.4148184061050415,-0.6015399694442749,-0.20599913597106934,-0.22394391894340515,0.020162850618362427,-0.1756802201271057,0.1993510127067566,0.8411157727241516,-0.11748236417770386,0.013139873743057251,0.16537578403949738,0.8738317489624023,-0.8557806611061096,0.4725069999694824,-0.12884454429149628,1.5282732248306274,-0.36456727981567383,0.06861650943756104
exclude,-1.7164512872695923,-1.342590570449829,-0.39197421073913574,0.3337518572807312,-0.8100666403770447,-0.13187479972839355,0.33016687631607056,1.996814250946045,0.3357541561126709,0.31268683075904846,0.042458951473236084,-0.6130054593086243,0.42176610231399536,-0.09647662937641144,0.9137643575668335,1.2091790437698364,0.7764866352081299,-0.7197287082672119,0.3857766389846802,0.20869846642017365,-0.5776776671409607,0.28845685720443726,-0.8778965473175049,-0.05263778567314148,1.0331368446350098,0.24066787958145142,-1.1072391271591187,2.282521963119507,0.33813101053237915,-0.6299195885658264,-0.3947088122367859,0.8831230998039246,0.17909255623817444,-0.17143376171588898,-0.527549147605896,-0.6596798300743103,0.48116546869277954,0.07029251754283905,0.932125985622406,-1.6169672012329102,3.2756433486938477,-0.221285879611969,-1.1227903366088867,-0.5562078952789307,-0.21515342593193054,-0.1693665087223053,1.8861308097839355,-1.499542236328125,1.6536880731582642,-0.41671842336654663,0.12222164869308472,1.394741415977478,-1.0426878929138184,-0.9424813985824585,1.9092531204223633,0.5629026293754578,-0.13909530639648438,0.09491794556379318,-0.8199172019958496,0.3592110872268677,-0.5308756828308105,0.7831165194511414,0.08277496695518494,0.5056449770927429,0.8500807285308838,0.5248346328735352,0.2761975824832916,-0.8585087060928345,-0.7185986638069153,0.988203227519989,0.26948803663253784,0.4345892667770386,1.131765604019165,-0.17557522654533386,-1.0643481016159058,-0.14903800189495087,0.08666068315505981,0.2727299928665161,0.2430126965045929,-2.064154863357544,-0.19541358947753906,-0.6376268863677979,-0.2517319321632385,-0.719505786895752,-0.040366411209106445,1.4821828603744507,-0.5614190697669983,-0.2157958596944809,-1.3827736377716064,-0.5473116636276245,-0.8684524297714233,1.2779881954193115,-0.9745395183563232,0.2656644284725189,-0.5480172634124756,1.0035033226013184
option,-0.8112688660621643,-0.9753424525260925,-0.610702633857727,-0.08276746422052383,0.2837500274181366,0.17606249451637268,1.5804681777954102,2.515266180038452,-0.20339643955230713,-1.099848747253418,0.6655246615409851,-0.937088131904602,-0.6009188890457153,-0.6183741688728333,-0.015438318252563477,0.7085795402526855,-0.9698335528373718,-1.5136044025421143,0.8793091773986816,0.49311912059783936,0.48746997117996216,0.415208101272583,0.2527255713939667,-0.8581497669219971,0.144243061542511,-0.23335792124271393,-0.3870834708213806,1.1509736776351929,-0.3074222803115845,-0.5003679990768433,0.5350772142410278,1.1009618043899536,1.244443655014038,-0.3129138946533203,-0.8027435541152954,-0.9137568473815918,0.3245142102241516,-0.13950438797473907,1.592318058013916,0.3223724961280823,-0.19003644585609436,0.3390893340110779,0.17591825127601624,0.36239564418792725,0.0592801570892334,-0.27232009172439575,-1.802648663520813,0.008833467960357666,0.3126380443572998,-0.9486699104309082,0.30469778180122375,0.7762067317962646,1.725797414779663,-0.44081348180770874,1.5090078115463257,-0.5094785094261169,1.403975486755371,-0.212778240442276,-0.33000296354293823,-0.6549618244171143,-0.9128082394599915,0.6361481547355652,0.025408819317817688,0.49192172288894653,1.4751983880996704,0.5279604196548462,-0.5156569480895996,-0.9832545518875122,-0.29344916343688965,-0.07381774485111237,0.5673030614852905,0.602523922920227,1.8758994340896606,-0.09346634149551392,-0.1284162849187851,-0.24130378663539886,-0.4083693027496338,0.022985100746154785,0.24969422817230225,-0.7877790927886963,-0.04071849584579468,-0.15788009762763977,-1.7456226348876953,-0.6690253019332886,-0.834862232208252,0.4064754247665405,-0.0815211683511734,-0.3875272572040558,-1.01633882522583,0.5836818218231201,-0.7076931595802307,-0.5298455953598022,1.22621488571167,0.886850118637085,-0.2601742446422577,0.5291082859039307
abandon,-1.527665615081787,-0.7913734316825867,0.6638576984405518,-0.8186546564102173,-1.3780043125152588,0.29412296414375305,0.031719744205474854,1.2841825485229492,0.36224833130836487,-0.9241564273834229,2.5225882530212402,0.1999959796667099,-1.0967390537261963,0.08600857853889465,-0.05975662171840668,0.6470320224761963,0.5067245364189148,-1.550513744354248,-0.2905815839767456,0.8529062271118164,-0.6381545662879944,0.12598201632499695,-2.077214241027832,-0.5711381435394287,0.8406195640563965,0.2818988263607025,0.634737491607666,1.2651976346969604,-1.3977997303009033,0.35380443930625916,-0.4631103575229645,-0.36518198251724243,0.20913448929786682,0.6835643649101257,-0.404384970664978,-1.2205982208251953,0.5834609866142273,0.579888641834259,1.3068485260009766,-1.0686697959899902,0.11846122145652771,-0.08527365326881409,-0.8499069213867188,-0.2481871247291565,-0.3452816605567932,-0.973267674446106,1.4450892210006714,-1.4075980186462402,1.0664489269256592,0.1801876425743103,0.5372328758239746,0.23696625232696533,-0.3746841251850128,-0.37835222482681274,0.45676177740097046,0.15931326150894165,0.7856472730636597,-0.9801877737045288,-0.11061426997184753,0.6399387121200562,-1.3656761646270752,-0.6259012818336487,-0.6336394548416138,0.3940601944923401,0.6423190832138062,1.1114873886108398,1.358322262763977,0.3376924991607666,0.22065362334251404,0.6746082305908203,1.9463510513305664,1.1580067873001099,0.6476141214370728,0.1673973947763443,-0.9973500967025757,1.7637218236923218,-0.38211116194725037,-0.8306571245193481,-0.9566894769668579,-0.42873355746269226,-0.4502769112586975,-0.06614573299884796,-0.7898589968681335,-0.1791137158870697,-0.5235518217086792,0.7107696533203125,0.9763503670692444,-0.18821999430656433,-1.404568076133728,0.13046270608901978,-0.35807448625564575,0.4604499936103821,-0.3667749762535095,0.5204347968101501,0.3969184160232544,0.8857558369636536
ROM,-1.241674542427063,0.3420792520046234,-0.5530354380607605,0.3965975046157837,-0.22602486610412598,0.0011558234691619873,0.44767817854881287,1.0652283430099487,-0.30199146270751953,-0.9342691898345947,2.1031737327575684,-0.808537483215332,0.10223063081502914,0.458479106426239,-0.8481128811836243,1.4532612562179565,-0.6145357489585876,-1.1967226266860962,0.578458845615387,0.9873477220535278,-0.4110940098762512,-0.21013867855072021,-0.2674773931503296,-1.1871423721313477,0.6281905174255371,0.3790717124938965,0.458670437335968,1.2722500562667847,-0.3031041622161865,1.140769362449646,-0.8089591264724731,-0.28655460476875305,0.518856406211853,-0.6701849699020386,-0.46747422218322754,-1.2866456508636475,-0.06864501535892487,1.0798745155334473,0.9707684516906738,0.46987274289131165,-1.223425269126892,-0.15745137631893158,-0.4345764219760895,0.19090783596038818,-0.30514225363731384,-0.9962390661239624,-0.6100308299064636,1.1683049201965332,1.193958044052124,-0.7091195583343506,1.2893186807632446,1.6310592889785767,0.669126033782959,-0.1565101146697998,-0.4728170931339264,0.026407897472381592,0.28366658091545105,0.40034520626068115,0.6436836123466492,0.26960358023643494,-1.1664386987686157,-0.32154494524002075,-0.09806007146835327,-0.48798978328704834,1.1675670146942139,0.8117111325263977,0.019704461097717285,-0.5247406959533691,0.8584967255592346,-0.5077246427536011,-0.29952874779701233,-1.0243548154830933,0.7498284578323364,-0.8699101209640503,0.8582558035850525,0.21848979592323303,0.15723353624343872,-0.29251083731651306,-0.14014285802841187,-0.7455573678016663,-0.33140748739242554,0.41213446855545044,-0.6870710253715515,-1.6058290004730225,0.7378712892532349,0.650576114654541,0.24646419286727905,0.7533800601959229,-0.67071133852005,-0.5075950622558594,-1.9792077541351318,-0.4140729606151581,1.7453083992004395,0.1905204951763153,-0.01948857307434082,2.2066516876220703
Review,-1.6137396097183228,-0.3206731677055359,-0.014414876699447632,0.493693470954895,0.041906535625457764,0.042271919548511505,1.4710439443588257,0.3509352207183838,-1.2322111129760742,-0.847778856754303,1.326002836227417,0.649850606918335,0.018900811672210693,0.6327645778656006,-0.663833498954773,0.6912814974784851,-0.928348183631897,-0.5178707838058472,0.7387627363204956,-0.4302111864089966,-1.1451388597488403,0.4422934055328369,-0.3146504759788513,-0.9762091040611267,0.640295147895813,0.13573627173900604,0.8075775504112244,1.9714181423187256,-0.1603580266237259,0.17651206254959106,0.10320340096950531,-0.14447611570358276,1.4705274105072021,0.23631156980991364,-0.5258920192718506,-1.0780529975891113,-0.011348247528076172,0.7991369366645813,1.179621934890747,0.1936626434326172,-0.4678937792778015,0.7289751172065735,0.16055086255073547,-0.1763910949230194,-0.8470020890235901,-1.53485906124115,-1.2338322401046753,1.884404182434082,0.5438565611839294,-0.17076388001441956,-0.16721883416175842,0.2604047656059265,0.105950266122818,-0.5936388969421387,1.0591363906860352,-1.491490364074707,2.0140111446380615,-0.18245938420295715,-0.06344223022460938,-0.271223247051239,-1.4008889198303223,0.5207875967025757,0.054813265800476074,-0.8020280599594116,1.167364478111267,0.1376246213912964,0.4126475751399994,-1.0270965099334717,0.3197163939476013,-0.5545942187309265,-0.009840965270996094,0.1710139811038971,1.6081852912902832,0.5326749682426453,0.3056602478027344,-0.5941929221153259,-0.25434744358062744,-0.3583410978317261,-0.31010329723358154,-0.9182468056678772,-0.4043087661266327,-0.21922945976257324,-0.5066594481468201,0.044731706380844116,-0.0600256621837616,1.3899860382080078,0.31145381927490234,-0.3285106420516968,-0.5115236043930054,-0.843786358833313,-0.883427619934082,-1.102756381034851,2.7007100582122803,-0.1927509903907776,0.3192695379257202,1.5301769971847534
versus,-0.7557587027549744,0.4563329815864563,0.22340500354766846,-1.1828588247299194,-0.7412115931510925,0.1003313660621643,0.9899982810020447,0.5339846611022949,0.6756945848464966,-0.5271213054656982,2.4779820442199707,-0.280468612909317,-0.6784858107566833,0.22245129942893982,-0.10907125473022461,0.23351849615573883,-0.2613942623138428,0.05620834231376648,0.0310487300157547,0.9997469186782837,-0.5775092840194702,-0.1551276445388794,-0.5086991190910339,-0.761813223361969,1.1974248886108398,0.7418087720870972,0.8379727602005005,0.18172705173492432,-0.5931856632232666,2.506671905517578,-0.4657575786113739,-0.08597031235694885,1.2513372898101807,0.8676108121871948,-0.913628101348877,-1.516003966331482,-0.5514630675315857,0.25033366680145264,0.5430412292480469,-0.5977363586425781,0.03999614715576172,0.02818892151117325,-0.5856789350509644,-0.42342954874038696,0.14853712916374207,-0.46636590361595154,0.016476869583129883,-1.297757625579834,0.9939641952514648,0.06942504644393921,-0.18704670667648315,0.6578506827354431,-0.39895325899124146,0.512441873550415,-0.9297642111778259,0.141310453414917,0.516049325466156,-0.8335267305374146,-0.10393407940864563,-0.2624458968639374,-1.4511913061141968,-1.1109051704406738,-1.0559567213058472,0.07079407572746277,0.6189088821411133,0.09959927201271057,0.2919987738132477,-1.3928581476211548,0.07199940085411072,0.6125077605247498,0.577698826789856,0.8046115636825562,-0.6820276975631714,0.005823969841003418,-0.7426806688308716,0.4625469446182251,-0.8986760377883911,-0.326607346534729,0.8118959069252014,0.836330235004425,0.19715821743011475,-1.2300817966461182,0.5620976090431213,-0.8136634826660156,0.5182502865791321,1.2768515348434448,0.5406771898269653,-0.259876549243927,-0.2533605694770813,0.579524040222168,-0.8446345329284668,1.2776292562484741,-0.4286033511161804,0.309261679649353,-0.09762215614318848,0.6982384920120239
Evaluation,-2.0975000858306885,0.007207617163658142,-0.6401355266571045,-0.03335896134376526,-0.27199670672416687,0.31099745631217957,0.4240334928035736,0.43027496337890625,-0.9324615001678467,-0.72801673412323,0.4144458770751953,-0.8775331974029541,-0.6102419495582581,0.9178565740585327,-0.5333671569824219,0.4736628234386444,-0.956626296043396,-1.4290859699249268,0.926986575126648,-0.26743224263191223,-0.6873461604118347,0.6056831479072571,0.05783042311668396,-1.3588371276855469,0.566092312335968,0.30910590291023254,0.3546870946884155,1.4980731010437012,0.6656509041786194,-0.016880393028259277,0.03483077883720398,-0.10412582755088806,1.0404984951019287,0.012594450265169144,-0.4863389730453491,-0.8413522243499756,0.8469313383102417,0.3510964512825012,0.6884758472442627,0.2517787516117096,-0.305003821849823,0.3551526665687561,-0.4542074203491211,0.9420744180679321,-0.10802534222602844,-1.2451682090759277,-1.5135858058929443,1.506316065788269,0.4706014096736908,-0.5975884199142456,-0.023584187030792236,1.2219780683517456,0.43249595165252686,-0.9434596300125122,0.7013812065124512,-0.7905653119087219,1.6849418878555298,-0.1661023050546646,-0.12087953090667725,0.19233834743499756,-1.2636616230010986,-0.7269443273544312,-0.4373159408569336,-0.3822791278362274,1.1994645595550537,0.41268420219421387,-0.008616417646408081,-0.7667242288589478,0.27117401361465454,-0.6788853406906128,0.26675257086753845,0.5742878913879395,1.9316771030426025,-0.3592659831047058,1.0700191259384155,0.11756642162799835,-0.8390182256698608,-0.26500076055526733,-0.1799197494983673,-0.4923235774040222,-0.10916900634765625,-0.09675270318984985,-1.3484275341033936,-0.8011906147003174,0.07227827608585358,1.3696123361587524,-0.13965578377246857,-0.4391370713710785,-0.3925321698188782,0.4766477942466736,-1.292284369468689,-0.7574220895767212,2.0221669673919678,0.6584591269493103,0.8944063782691956,1.7553398609161377
